<?xml version="1.0"?>
<opencv_storage>
<opencv_ml_svm>
  <format>3</format>
  <svmType>C_SVC</svmType>
  <kernel>
    <type>RBF</type>
    <gamma>5.0624999999999998e-01</gamma></kernel>
  <C>2.6699999999999999e+00</C>
  <term_criteria><epsilon>1.1920928955078125e-07</epsilon>
    <iterations>1000</iterations></term_criteria>
  <var_count>324</var_count>
  <class_count>3</class_count>
  <class_labels type_id="opencv-matrix">
    <rows>3</rows>
    <cols>1</cols>
    <dt>i</dt>
    <data>
      0 1 766593912</data></class_labels>
  <sv_total>800</sv_total>
  <support_vectors>
    <_>
      3.49958152e-01 3.49958152e-01 3.40627581e-01 3.49958152e-01
      3.49958152e-01 3.49958152e-01 3.49958152e-01 1.64122224e-01
      3.44551951e-01 5.25545001e-01 5.25545001e-01 1.51828095e-01
      1.69419311e-03 2.57779092e-01 5.25545001e-01 1.81562930e-01
      5.78301139e-02 2.00860411e-01 4.37518567e-01 8.79053175e-02
      5.40352352e-02 1.21776581e-01 4.37518567e-01 4.37518567e-01
      1.14195049e-01 4.37518567e-01 4.37518567e-01 4.86943334e-01
      6.22824542e-02 1.87253371e-01 4.86943334e-01 4.86943334e-01
      1.22224670e-02 6.30487576e-02 6.01144843e-02 4.86943334e-01
      1.99686140e-01 9.26037654e-02 2.04360530e-01 5.36401927e-01
      1.64027572e-01 1.17715374e-02 1.19186379e-01 5.36401927e-01
      5.36401927e-01 7.03061894e-02 5.19094095e-02 1.56814858e-01
      4.24855918e-01 4.24855918e-01 4.24855918e-01 4.24855918e-01
      4.24855918e-01 2.47011513e-01 4.70112771e-01 4.70112771e-01
      3.11333090e-01 2.82601733e-02 6.32720217e-02 4.70112771e-01
      4.70112771e-01 9.20360759e-02 3.28553058e-02 4.44860846e-01
      4.44860846e-01 4.44860846e-01 1.63840696e-01 4.18221742e-01
      4.44860846e-01 2.16299202e-02 3.12948264e-02 2.74085943e-02
      6.54968470e-02 2.83898115e-02 1.14165004e-02 3.08906436e-01
      3.75526518e-01 8.73424187e-02 1.89520165e-01 5.95331609e-01
      5.95331609e-01 4.76611592e-03 4.83090162e-01 4.83090162e-01
      1.09377496e-01 1.20642625e-01 1.87019557e-01 4.83090162e-01
      4.83090162e-01 1.23772249e-02 2.70969830e-02 1.41995043e-01
      4.64924246e-01 4.64924246e-01 3.26595336e-01 4.08310592e-02
      3.88513207e-02 4.64924246e-01 4.64924246e-01 3.00188619e-03
      4.83547989e-03 3.02113920e-01 4.51571614e-01 3.59000385e-01
      1.51923925e-01 2.94330359e-01 4.80306208e-01 4.80306208e-01
      1.23716950e-01 3.19452941e-01 1.46175995e-01 1.02368139e-01
      5.76120615e-02 2.14777961e-01 7.25096405e-01 5.15996873e-01
      4.57519703e-02 3.79423308e-03 5.34061193e-01 5.34061193e-01
      8.23624432e-02 4.16200906e-01 4.90132540e-01 6.11393228e-02
      2.13665515e-03 1.51707884e-02 4.48581902e-03 1.57147702e-02
      1.11411005e-01 5.37229359e-01 2.60813028e-01 9.91323888e-02
      5.60635209e-01 5.48583865e-01 0. 3.52001280e-01 3.62088174e-01
      3.62088174e-01 3.62088174e-01 2.54874319e-01 1.66117430e-01
      3.62088174e-01 3.62088174e-01 3.52678716e-01 3.98606122e-01
      1.75436601e-01 2.57521421e-01 3.28231901e-01 2.66499013e-01
      3.98606122e-01 3.98606122e-01 2.90890604e-01 3.98606122e-01
      1.06979862e-01 2.76727462e-03 5.39257228e-01 5.39257228e-01
      9.95851401e-03 4.72910656e-03 3.15172791e-01 5.39257228e-01
      1.06357686e-01 1.10729486e-02 2.95120403e-02 3.40463489e-01
      2.82405972e-01 6.63710907e-02 8.34484920e-02 3.65131855e-01
      7.47207165e-01 3.04747999e-01 3.18708755e-02 6.31294370e-01
      6.31294370e-01 4.14932877e-01 1.56647004e-02 1.44681893e-02
      6.16261922e-02 9.05907080e-02 1.04822308e-01 4.95052248e-01
      1.00097572e-02 3.41346720e-03 5.41877113e-02 3.93205285e-01
      8.87522846e-03 3.19512159e-01 4.95052248e-01 4.95052248e-01
      6.85376406e-01 2.02908926e-02 1.81932643e-03 2.19145045e-02
      2.29633138e-01 6.88978424e-03 8.03207222e-04 1.24929391e-03
      6.85376406e-01 6.91614330e-01 1.57689862e-02 3.80385877e-03
      1.38220182e-02 4.06884849e-02 3.61247323e-02 4.68546860e-02
      1.75570711e-01 6.91614330e-01 1.64453797e-02 4.59111452e-01
      4.59111452e-01 7.89857954e-02 4.59111452e-01 4.59111452e-01
      3.73116493e-01 7.71778971e-02 2.44842321e-02 1.90754890e-01
      1.09611042e-02 3.19663286e-01 4.99052197e-01 3.25284541e-01
      4.72241700e-01 2.76082218e-01 3.75383258e-01 2.47616962e-01
      2.29745675e-02 4.01077792e-02 1.70418739e-01 5.61579525e-01
      1.29434362e-01 0. 1.85809825e-02 5.61579525e-01 5.61579525e-01
      3.87753546e-01 1.55316263e-01 3.02246697e-02 5.10554492e-01
      5.10554492e-01 5.10554492e-01 1.23419605e-01 1.97994411e-02
      1.47950560e-01 3.54516268e-01 1.29530113e-03 7.19443429e-03
      5.40873885e-01 6.33809626e-01 1.73502620e-02 9.56268329e-03
      2.96892761e-03 4.16264653e-01 5.09335339e-01 5.09335339e-01
      3.63277979e-02 2.37196192e-01 5.09335339e-01 3.46476167e-01
      1.77660286e-01 2.47757323e-02 8.27128515e-02 1.84449568e-01
      1.17914043e-01 4.95801270e-02 0. 8.89048427e-02 5.22666514e-01
      5.22666514e-01 5.22666514e-01 3.41982186e-01 8.09536129e-02
      1.28762713e-02 6.10549077e-02 2.51796539e-03 8.13008100e-02
      5.27640402e-01 5.27640402e-01 5.27640402e-01 3.77431065e-01
      2.68363476e-01 2.13961333e-01 5.14685631e-01 5.14685631e-01
      5.14685631e-01 1.13808468e-01 4.10979539e-02 1.19526178e-01
      2.31148854e-01 4.22680318e-01 2.26857886e-01 3.40307355e-01
      4.33475316e-01 4.33475316e-01 1.79607257e-01 4.89571802e-02
      2.26670578e-01 4.33475316e-01 4.69478130e-01 1.07314594e-01
      6.60284162e-02 2.49546275e-01 4.69478130e-01 4.37026024e-01
      2.98670173e-01 1.51399747e-01 4.16202098e-01 7.14725479e-02
      4.62861985e-01 3.49681348e-01 1.78838208e-01 4.62861985e-01
      4.62861985e-01 4.26665395e-01 7.78088346e-02 7.20214099e-02
      8.07225518e-03 1.66310947e-02 6.25993386e-02 3.71312022e-01
      4.89200205e-01 4.89200205e-01 4.89200205e-01 8.89642686e-02
      3.56532753e-01</_>
    <_>
      0. 4.24514353e-01 4.24514353e-01 4.24514353e-01 4.24514353e-01
      3.84276450e-01 3.12725514e-01 6.70246109e-02 1.57961145e-01
      5.41558385e-01 5.41558385e-01 9.20382664e-02 2.30026245e-02
      2.94830739e-01 5.41558385e-01 6.42606318e-02 6.64671790e-03
      1.20981053e-01 4.67147082e-01 4.64439914e-02 3.37439924e-02
      5.88838458e-02 4.67147082e-01 4.67147082e-01 4.69819792e-02
      4.67147082e-01 3.36835295e-01 5.31180091e-02 1.99094834e-03
      1.02389097e-01 4.92127150e-01 4.92127150e-01 5.05910367e-02
      1.02273867e-01 4.92127150e-01 4.92127150e-01 7.59772360e-02
      2.83194929e-01 4.60385948e-01 1.92554966e-01 1.56577051e-01
      3.82824009e-03 4.60385948e-01 4.60385948e-01 4.60385948e-01
      2.42582709e-01 4.69361931e-01 4.69361931e-01 4.69361931e-01
      4.69361931e-01 8.46387371e-02 1.20177865e-01 1.50472462e-01
      1.04950659e-01 5.07089794e-01 5.07089794e-01 3.97920012e-01
      4.57999209e-04 9.74027615e-04 5.07089794e-01 2.36362308e-01
      4.99885827e-02 8.25103894e-02 5.60096323e-01 5.60096323e-01
      5.60096323e-01 1.41716348e-02 1.60344705e-01 1.62652209e-01
      2.78410520e-02 7.39710871e-04 1.18518770e-02 1.10036405e-02
      3.51566612e-03 1.23359160e-02 3.65193412e-02 2.06369564e-01
      1.11291111e-01 1.18643560e-01 6.79172397e-01 6.79172397e-01
      5.09939417e-02 3.13568473e-01 3.62068564e-01 3.89898121e-01
      3.89898121e-01 3.89898121e-01 3.89898121e-01 3.89898121e-01
      6.31111488e-02 6.45318925e-02 1.45864129e-01 6.58439040e-01
      6.58439040e-01 1.87897608e-01 8.52065533e-02 7.80744152e-03
      6.77235126e-02 2.31708378e-01 8.38043690e-02 4.00488436e-01
      4.00488436e-01 4.00488436e-01 6.44706488e-02 3.28289747e-01
      4.00488436e-01 4.00488436e-01 2.74026304e-01 1.36954905e-02
      4.41348732e-01 5.21454811e-01 2.19679624e-01 1.75364893e-02
      1.10230118e-01 5.21454811e-01 4.41612333e-01 1.57105941e-02 0.
      4.50729191e-01 4.71465558e-01 3.77272010e-01 4.71465558e-01
      4.53033864e-01 6.80201163e-04 5.67880401e-04 0. 3.79084813e-04
      1.31494775e-02 5.86271919e-02 5.36369443e-01 2.88327843e-01
      1.60628527e-01 5.45123518e-01 5.45123518e-01 3.79084813e-04
      2.10071206e-01 3.17740262e-01 1.96406707e-01 9.79286283e-02
      1.84288338e-01 4.80604231e-01 4.80604231e-01 4.80604231e-01
      2.73937821e-01 4.08376604e-01 4.50872868e-01 4.50872868e-01
      4.50872868e-01 3.46699297e-01 2.51138121e-01 1.50070339e-01
      9.37737226e-02 6.54250309e-02 7.48828053e-02 2.88476378e-01
      5.12695134e-01 5.12695134e-01 3.29832941e-01 1.53686389e-01
      3.14771570e-02 4.67131346e-01 1.69497043e-01 6.49771467e-03
      2.45882154e-01 5.02682507e-01 5.02682507e-01 5.63355461e-02
      8.29334278e-03 2.04657823e-01 5.02682507e-01 3.62329692e-01
      3.68370488e-02 6.29624546e-01 6.35574996e-01 4.33906347e-01
      1.76787265e-02 1.13011291e-02 2.65770666e-02 4.07512486e-02
      2.88579687e-02 4.74925429e-01 1.04292184e-02 7.32018501e-02
      1.05943620e-01 3.06548804e-01 3.17172753e-03 4.55982894e-01
      4.74925429e-01 4.74925429e-01 7.03647077e-01 0. 0. 7.13699544e-03
      4.99213897e-02 1.36441495e-02 1.06991257e-03 2.65370472e-03
      7.03647077e-01 6.14300251e-01 1.40757794e-02 1.43048065e-02
      2.68162671e-03 8.16682167e-03 4.54152178e-04 1.62644535e-01
      4.60658967e-01 6.14300251e-01 1.16056219e-01 4.17609543e-01
      4.17609543e-01 1.52907632e-02 4.79327478e-02 4.17609543e-01
      4.17609543e-01 3.28388929e-01 4.17609543e-01 2.10703891e-02
      2.95899510e-01 4.45407063e-01 4.45407063e-01 9.34009552e-02
      3.00476581e-01 4.45407063e-01 4.45407063e-01 1.22436665e-01
      1.31158277e-01 4.45726439e-02 2.34639749e-01 5.49368799e-01
      1.17529042e-01 3.98246292e-03 3.19629945e-02 5.49368799e-01
      5.49368799e-01 1.25107676e-01 8.27839449e-02 1.74683884e-01
      6.41594827e-01 6.80742919e-01 7.68125504e-02 3.71434353e-02
      1.43842384e-01 1.92767203e-01 3.34217958e-02 3.75911184e-02
      7.28591233e-02 5.68948328e-01 7.66684413e-01 1.89866126e-01
      1.44082308e-01 6.19865358e-02 1.11134693e-01 5.14430940e-01
      5.14430940e-01 0. 3.99016142e-01 5.14430940e-01 1.69647664e-01
      1.02113158e-01 4.94060218e-02 9.08958446e-03 1.85600847e-01
      4.00559515e-01 4.00559515e-01 2.75510132e-01 2.73562670e-01
      4.00559515e-01 4.00559515e-01 4.00559515e-01 9.25666913e-02
      4.31919813e-01 4.31919813e-01 4.31919813e-01 2.29415633e-02
      3.20588015e-02 1.72225162e-01 4.31919813e-01 4.31919813e-01
      1.78034186e-01 9.51945491e-04 4.39690083e-01 6.31077230e-01
      5.63335299e-01 1.67501904e-02 1.24600478e-01 2.44068369e-01
      9.67296511e-02 5.82723785e-03 8.82274210e-02 3.12176021e-03
      2.34398350e-01 4.93441641e-01 4.93441641e-01 2.20801383e-01
      2.57921487e-01 2.94286549e-01 4.93441641e-01 5.45729935e-01
      6.78166971e-02 0. 0. 5.45729935e-01 5.45729935e-01 1.24185756e-01
      7.60490820e-02 2.74375558e-01 3.99486795e-02 4.67331082e-01
      4.67331082e-01 4.67331082e-01 3.32899183e-01 4.19832140e-01
      1.74267992e-01 1.32660732e-01 5.90949096e-02 1.45138979e-01
      5.97354174e-01 5.97354174e-01 2.86041230e-01 2.37060532e-01
      1.17979370e-01 2.51277268e-01 1.52524605e-01 1.44795194e-01</_>
    <_>
      4.12524026e-03 4.58216369e-01 4.84437525e-01 2.22099230e-01
      9.11431462e-02 4.84437525e-01 4.84437525e-01 1.45918801e-01
      4.70721163e-02 9.68135372e-02 4.46399629e-01 4.79769617e-01
      1.46439284e-01 1.45409465e-01 4.79769617e-01 4.79769617e-01
      2.31162667e-01 1.16707745e-03 1.44571945e-01 2.91656703e-01
      2.96764463e-01 4.06115890e-01 5.23859560e-01 1.36254668e-01
      3.85960430e-01 4.14332390e-01 1.48907468e-01 4.17378247e-01
      4.46453393e-01 2.66087115e-01 4.46453393e-01 4.46453393e-01
      2.79163271e-01 2.22907409e-01 1.02050491e-01 1.20571643e-01
      4.81930792e-01 2.66859204e-01 2.83143908e-01 9.03057382e-02
      3.76314037e-02 7.96786174e-02 3.37431580e-01 4.90752935e-01
      4.90752935e-01 0. 5.13302796e-02 1.30651966e-01 1.82178363e-01
      2.48446912e-01 5.78427136e-01 5.78427136e-01 4.01507705e-01
      2.21901432e-01 4.39883620e-01 4.94120687e-01 2.59833902e-01
      8.46612733e-03 3.09514962e-02 4.94120687e-01 4.94120687e-01
      1.88800152e-02 1.42028295e-02 6.51574552e-01 6.51574552e-01
      2.25512311e-01 2.47635338e-02 1.17285423e-01 2.80570418e-01
      2.07747594e-02 4.40986082e-03 8.12533079e-04 5.56485634e-03
      4.56910534e-03 8.42078822e-04 9.45472639e-05 7.98607431e-03
      5.02406769e-02 2.60864645e-01 6.79164588e-01 6.79164588e-01
      3.51591021e-01 3.51591021e-01 3.51591021e-01 3.51591021e-01
      3.51591021e-01 3.51591021e-01 3.51591021e-01 3.51591021e-01
      8.69328305e-02 3.99095602e-02 5.78255728e-02 6.98739231e-01
      6.98739231e-01 6.32152036e-02 8.71602353e-03 9.86976083e-03
      1.06248241e-02 8.56321678e-02 1.77889802e-02 3.32748666e-02
      9.15563405e-02 4.90172148e-01 1.50828153e-01 2.80364424e-01
      5.52744448e-01 5.52744448e-01 1.78882554e-01 1.02636069e-02
      2.77442902e-01 2.47107074e-01 3.44875664e-03 8.51258449e-03
      2.45203853e-01 6.93582952e-01 5.59627831e-01 2.20112316e-02 0.
      4.64887291e-01 4.64887291e-01 3.61748606e-01 4.64887291e-01
      4.64887291e-01 1.76884898e-03 3.25674796e-03 0. 7.11086730e-04
      1.14881271e-03 4.17145988e-04 4.68364851e-05 5.36858618e-01
      5.36858618e-01 5.36858618e-01 3.60533893e-01 5.19403722e-04
      3.65461558e-01 3.65461558e-01 3.65461558e-01 1.04313344e-01
      3.65461558e-01 3.65461558e-01 3.65461558e-01 2.24794060e-01
      3.65461558e-01 3.23364556e-01 3.59471500e-01 3.59471500e-01
      3.59471500e-01 3.59471500e-01 3.59471500e-01 1.84519753e-01
      3.44013005e-01 3.05536568e-01 3.47420201e-02 2.22150341e-01
      5.43843448e-01 1.58167750e-01 2.44695142e-01 2.37761922e-02
      5.43843448e-01 5.14050961e-01 5.26625142e-02 1.53774740e-02
      7.06775952e-03 1.47240341e-01 1.63994636e-02 2.06183847e-02
      6.36412501e-02 6.89206660e-01 6.89206660e-01 1.28053650e-01
      1.45785185e-02 5.91896594e-01 7.81755090e-01 1.71280295e-01
      1.26784444e-02 2.62803677e-03 2.43219677e-02 1.74274277e-02
      1.01417722e-02 5.18654943e-01 8.12175497e-03 0. 4.57300395e-02
      2.28792772e-01 1.88856684e-02 3.64625067e-01 5.18654943e-01
      5.18654943e-01 6.89884186e-01 1.18353241e-03 0. 7.69129163e-03
      2.02548966e-01 1.20855551e-02 0. 0. 6.89884186e-01 4.91849273e-01
      1.59336273e-02 0. 4.56812500e-04 2.58371290e-02 1.62797898e-01
      4.91849273e-01 4.91849273e-01 4.91849273e-01 6.41621649e-02
      4.66173142e-01 3.37854326e-01 3.23109813e-02 5.62941954e-02
      4.66173142e-01 4.66173142e-01 4.66173142e-01 5.99888675e-02
      8.17698315e-02 5.17243981e-01 5.17243981e-01 2.28746951e-01
      1.55149223e-02 1.81264542e-02 1.12327179e-02 5.17243981e-01
      3.64010096e-01 2.36965701e-01 0. 4.80928198e-02 2.76046336e-01
      6.27220348e-02 2.51559690e-02 3.22151855e-02 6.53149009e-01
      6.53149009e-01 4.50915307e-01 2.04691850e-02 2.48461217e-02
      4.27551597e-01 6.02993131e-01 1.33173898e-01 1.88855845e-02
      9.72464457e-02 4.64401096e-01 5.77870548e-01 8.23709741e-02
      1.17058707e-02 1.95432097e-01 6.97653711e-01 1.29530221e-01
      7.18453676e-02 5.05643561e-02 3.20575058e-01 4.96568650e-01
      4.96568650e-01 0. 3.66878584e-02 4.96568650e-01 4.96568650e-01
      8.06931704e-02 1.06307231e-02 2.73603238e-02 4.18884829e-02
      5.27604043e-01 3.10472250e-01 6.61877636e-03 3.36436108e-02
      4.02869374e-01 5.27604043e-01 4.19891447e-01 7.93362875e-03
      6.26666173e-02 6.19910598e-01 6.19910598e-01 4.03216965e-02
      5.73540200e-03 0. 4.22213674e-01 2.02337310e-01 2.10183654e-02
      3.44448201e-02 1.49816394e-01 4.38268811e-01 3.78834844e-01
      1.97518781e-01 4.38268811e-01 4.38268811e-01 4.38268811e-01
      1.45406216e-01 1.38432577e-01 9.82376486e-02 1.88928664e-01
      5.73528826e-01 5.73528826e-01 4.56315011e-01 1.77932575e-01
      2.94308867e-02 1.76478356e-01 5.53858280e-01 7.48790801e-02
      3.16706821e-02 2.51849741e-01 5.53858280e-01 5.53858280e-01
      1.06055494e-02 3.53518315e-03 6.34736270e-02 1.24107383e-03
      4.63603407e-01 4.88464832e-01 2.44138241e-01 4.88464832e-01
      4.88464832e-01 6.68124631e-02 1.81824826e-02 0. 1.99303851e-02
      5.21820560e-02 7.19212368e-02 1.90045387e-02 3.51108834e-02
      5.11952817e-01 6.03961647e-01 5.97321033e-01 2.06142664e-02</_>
    <_>
      2.29996592e-02 1.21908173e-01 5.46577513e-01 8.73509049e-02
      6.44363537e-02 1.56962499e-01 5.64466298e-01 5.64466298e-01
      8.10068026e-02 6.06042407e-02 6.32093847e-02 1.47814406e-02
      1.57507863e-02 2.12295339e-01 5.50190687e-01 5.50190687e-01
      5.50190687e-01 1.82132289e-01 4.19962466e-01 1.88642517e-01
      5.53500280e-02 0. 4.19962466e-01 4.19962466e-01 2.74431944e-01
      4.19962466e-01 4.19962466e-01 5.22985876e-01 2.44291127e-02
      8.95700306e-02 5.33744991e-01 5.33744991e-01 1.95841670e-01
      1.74725041e-01 7.93932155e-02 2.59966046e-01 1.70071363e-01
      5.07203974e-02 1.99977845e-01 5.15733898e-01 5.15733898e-01
      6.85637593e-02 2.53292210e-02 3.46517533e-01 5.15733898e-01
      3.97199243e-01 5.33976406e-02 3.97199243e-01 3.97199243e-01
      1.99328884e-01 8.27361420e-02 3.97199243e-01 3.97199243e-01
      3.97199243e-01 1.44686652e-02 0. 9.06662026e-04 4.82679307e-02
      4.00844216e-02 6.94288611e-01 6.94288611e-01 1.24619797e-01
      9.65359360e-02 6.33790493e-01 6.33790493e-01 2.58110046e-01
      2.37058327e-02 5.91522530e-02 3.38189781e-01 6.43818229e-02
      3.30467112e-02 0. 1.47841543e-01 4.71731387e-02 2.44605899e-01
      2.21885130e-01 5.13982475e-01 1.81864977e-01 1.90027833e-01
      5.13982475e-01 5.13982475e-01 1.08257182e-01 1.94962090e-03
      7.69879743e-02 8.71556625e-02 7.84550309e-02 4.02902439e-02
      5.66074789e-01 5.66074789e-01 5.66074789e-01 2.77266532e-01
      3.10076237e-01 2.22523376e-01 1.56469867e-02 3.61546963e-01
      3.74932706e-01 4.08997923e-01 4.08997923e-01 4.08997923e-01
      2.80807257e-01 1.48584798e-01 5.17435014e-01 5.17435014e-01
      4.08412479e-02 1.24752223e-02 2.38429476e-02 2.97141790e-01
      5.17435014e-01 2.16494761e-02 4.28629965e-02 3.93128060e-02
      7.56293361e-04 5.06525720e-03 5.75861633e-01 8.01532388e-01
      1.06459282e-01 5.21410517e-02 2.87367832e-02 4.73067671e-01
      4.73067671e-01 3.12411398e-01 4.73067671e-01 4.73067671e-01
      3.60514708e-02 2.27695471e-03 1.92686412e-02 1.51694305e-02
      3.13488320e-02 1.62637532e-01 3.84939253e-01 1.89396054e-01
      1.74400002e-01 6.13048196e-01 6.13048196e-01 9.72038973e-03
      5.91133051e-02 6.31945878e-02 1.29288837e-01 3.86241198e-01
      4.40695584e-01 4.72947329e-01 4.72947329e-01 4.23096120e-01
      3.61812748e-02 3.97843570e-01 3.97843570e-01 1.03438832e-01
      3.97843570e-01 2.52283067e-01 3.97843570e-01 3.97843570e-01
      2.57869571e-01 2.52557129e-01 1.12243995e-01 3.49438816e-01
      3.77112597e-01 3.35660398e-01 3.77112597e-01 1.94393456e-01
      3.77112597e-01 3.77112597e-01 3.77112597e-01 1.97073910e-03
      9.89485346e-03 6.76730052e-02 1.93480477e-01 1.30491592e-02
      2.24957429e-02 6.89319313e-01 6.89319313e-01 1.97073910e-03
      2.10431800e-03 6.88792408e-01 6.88792408e-01 1.21861488e-01
      1.53928831e-01 1.71249046e-03 1.86937524e-03 6.87790588e-02
      3.11199594e-02 2.14625582e-01 1.85090955e-02 4.47981842e-02
      1.43824751e-02 1.07256863e-02 4.32824949e-03 5.61438441e-01
      5.61438441e-01 5.61438441e-01 6.99660301e-01 0. 2.22420171e-02
      6.09642789e-02 4.45025265e-02 4.37084176e-02 6.96395785e-02
      3.18518877e-02 6.99660301e-01 6.75559461e-01 2.24197609e-03
      8.18141364e-03 1.41480342e-01 2.45647565e-01 6.06829242e-04
      1.21973870e-04 7.92840682e-03 6.75559461e-01 3.96930426e-01
      3.96930426e-01 2.70341873e-01 1.54977635e-01 1.78885266e-01
      2.87690252e-01 3.92366379e-01 3.96930426e-01 3.96930426e-01
      1.33236870e-03 0. 3.71113347e-05 5.49878320e-03 3.90761346e-03
      4.69100960e-02 5.96852005e-01 7.11859345e-01 3.57309967e-01
      1.66023746e-01 1.44883305e-01 4.35485214e-01 4.35485214e-01
      2.82204956e-01 4.23122942e-02 3.27223748e-01 4.35485214e-01
      4.35485214e-01 3.90981510e-02 1.64406188e-03 2.40585837e-03
      4.86339420e-01 8.50258350e-01 5.36068939e-02 3.15207392e-02
      9.46116447e-02 1.33019909e-01 3.75253484e-02 0. 3.51723342e-04
      4.51694518e-01 8.84129822e-01 1.25748832e-02 0. 1.27928390e-03
      6.24225959e-02 6.14748895e-02 0. 0. 2.70000160e-01 9.39134240e-01
      1.61082342e-01 3.76394275e-03 4.26898972e-04 7.75657147e-02
      4.40274149e-01 4.40274149e-01 9.33847129e-02 7.96213970e-02
      4.29893404e-01 4.40274149e-01 4.40274149e-01 1.42522812e-01
      7.43769808e-03 3.79415066e-03 0. 0. 0. 9.90939047e-03
      8.50780383e-02 7.02006757e-01 7.02006757e-01 3.79415066e-03
      3.16004781e-03 7.57132983e-03 2.31313836e-02 9.96579323e-03
      8.38607997e-02 1.32198602e-01 5.68364203e-01 5.68364203e-01
      5.68364203e-01 5.97601235e-01 1.94355115e-01 2.90675044e-01
      3.14322412e-01 1.80690303e-01 3.01015321e-02 1.08726449e-01
      1.15488403e-01 5.97601235e-01 6.09511077e-01 5.24018444e-02
      1.74774140e-01 7.52670467e-02 3.39808613e-02 9.26437154e-02
      8.26397240e-02 4.42021281e-01 6.09511077e-01 5.19099832e-01
      5.19099832e-01 5.26907714e-03 2.35888083e-03 9.43732914e-03
      4.68639433e-01 4.83524948e-01 4.10963371e-02 2.56126933e-02
      2.10176960e-01 1.34789973e-01 1.56946734e-01 2.84924507e-01
      4.38435405e-01 4.38435405e-01 4.38435405e-01 4.24233586e-01
      2.66106248e-01</_>
    <_>
      2.02073440e-01 5.19028425e-01 3.28621984e-01 4.81946990e-02
      2.38005128e-02 8.42931941e-02 5.25887072e-01 5.25887072e-01
      1.15855299e-01 2.79164314e-01 4.07401532e-01 4.85349260e-02
      1.16715491e-01 4.07401532e-01 4.07401532e-01 4.07401532e-01
      3.17440033e-01 3.70603740e-01 6.25545144e-01 1.58017501e-01
      1.64578259e-02 7.12003559e-03 3.03818524e-01 2.43215188e-01
      1.61928087e-01 9.03866142e-02 6.25545144e-01 4.22397941e-01
      3.16413969e-01 4.22397941e-01 4.22397941e-01 2.90620148e-01
      5.15532796e-04 0. 3.12285483e-01 4.22397941e-01 2.12414265e-01
      3.76301646e-01 4.65280265e-01 2.60038584e-01 3.78882512e-02
      8.62609595e-02 4.65280265e-01 4.65280265e-01 2.87534565e-01
      3.78745168e-01 2.33230174e-01 3.78745168e-01 2.66978085e-01
      3.78745168e-01 2.68041879e-01 3.78745168e-01 2.85406232e-01
      3.78745168e-01 1.03282258e-01 4.44717199e-01 2.82846898e-01
      2.00112574e-02 4.13774215e-02 5.10777593e-01 5.10777593e-01
      4.23469752e-01 5.68257943e-02 5.42395353e-01 5.42395353e-01 0. 0.
      2.80340072e-02 5.42395353e-01 3.25271070e-01 4.53731157e-02
      5.79607412e-02 6.47324324e-02 3.43231391e-03 1.80435684e-02
      8.90134498e-02 2.37018820e-02 2.00849120e-03 3.36239813e-03
      6.99994326e-01 6.99994326e-01 3.07616323e-01 3.71502280e-01
      3.71502280e-01 3.71502280e-01 3.71502280e-01 3.71502280e-01
      3.71502280e-01 2.54107445e-01 9.49021876e-02 4.86270711e-02
      2.20907037e-03 5.85722029e-01 6.06339097e-01 6.55897930e-02
      6.36807457e-02 1.84449982e-02 4.50352877e-01 2.63332218e-01
      3.27632613e-02 1.49372518e-01 4.32106316e-01 4.14678365e-01
      7.19438773e-03 2.31137842e-01 4.32106316e-01 4.32106316e-01
      4.32106316e-01 9.99127142e-03 1.63419172e-02 5.77903446e-03
      2.20632041e-03 4.12239553e-03 6.96120620e-01 6.96120620e-01
      1.53160632e-01 1.70398410e-03 3.23046785e-04 4.79811877e-01
      4.79811877e-01 2.72635221e-01 4.79811877e-01 4.79811877e-01 0. 0.
      0. 1.62770704e-03 4.89500002e-04 1.01669204e-04 4.95215803e-01
      4.95215803e-01 3.48366052e-01 4.95215803e-01 3.71451229e-01
      1.37370371e-04 3.32511403e-02 1.57003149e-01 5.15889883e-01
      1.41041189e-01 1.06454395e-01 8.92137885e-02 5.15889883e-01
      5.15889883e-01 3.62602890e-01 3.87870878e-01 3.87870878e-01
      3.87870878e-01 3.87870878e-01 2.25501195e-01 3.19262296e-01
      3.87870878e-01 2.44250283e-01 1.77393973e-01 3.29774886e-01
      1.63090080e-01 4.27267373e-01 3.43390644e-01 1.04352962e-02
      1.10119775e-01 4.27267373e-01 4.27267373e-01 4.27267373e-01
      1.80951064e-03 1.12695098e-02 2.63876538e-03 2.32084026e-03
      1.23230787e-02 1.74283460e-02 7.04402864e-01 7.04402864e-01
      1.80951064e-03 3.20505886e-03 7.02806532e-01 7.02806532e-01
      6.23641629e-03 1.42133411e-03 2.37670131e-02 6.43091500e-02
      1.62056666e-02 9.79827624e-03 4.96542931e-01 4.16670926e-03
      1.40123041e-02 6.02983609e-02 5.93450330e-02 3.80760804e-02
      4.96542931e-01 4.96542931e-01 4.96542931e-01 6.34919584e-01
      2.92460085e-03 8.14110623e-04 2.26280279e-02 4.31904227e-01
      1.85216926e-02 1.05679804e-03 2.93852622e-03 6.34919584e-01
      5.11162341e-01 1.84501652e-02 1.99351998e-04 6.01960160e-02
      3.12791616e-01 6.77688643e-02 3.23479146e-01 5.11162341e-01
      5.11162341e-01 5.82387969e-02 4.09742504e-01 3.90504420e-01
      2.05895603e-01 4.09742504e-01 4.09742504e-01 4.09742504e-01
      3.53449762e-01 3.38500850e-02 1.69020016e-02 2.14830283e-02
      2.14447696e-02 3.35815316e-03 2.75490023e-02 7.76507938e-03
      3.99169117e-01 8.68526757e-01 2.74993151e-01 5.94879128e-02
      4.94020805e-02 1.40276402e-01 5.41037619e-01 2.84491509e-01
      8.19000900e-02 5.59652820e-02 5.41037619e-01 5.41037619e-01
      1.58978760e-01 2.00350974e-02 7.32605672e-03 9.93883163e-02
      9.36378181e-01 2.62188703e-01 1.36289774e-02 2.40723435e-02
      9.34787393e-02 2.21735612e-01 3.82617698e-03 0. 1.24758780e-01
      9.08230007e-01 3.05607527e-01 1.55452336e-03 0. 8.89487490e-02
      4.91532058e-01 4.91532058e-01 0. 4.36678566e-02 4.91532058e-01
      4.91532058e-01 1.29696921e-01 9.75603163e-02 2.07270514e-02
      4.18575585e-01 4.18575585e-01 3.17987859e-01 2.49394067e-02
      5.76694161e-02 4.18575585e-01 4.18575585e-01 4.18575585e-01
      1.21354617e-01 3.60404670e-01 3.76170069e-01 2.50832647e-01 0.
      2.29400098e-01 3.12343776e-01 4.12868083e-01 4.12868083e-01
      4.12868083e-01 4.34655666e-01 1.93180472e-01 2.53371149e-02 0.
      4.34655666e-01 4.34655666e-01 1.14322998e-01 4.34655666e-01
      4.34655666e-01 3.26130420e-01 4.09074407e-03 3.01247253e-03
      4.55708690e-02 4.55901295e-01 4.55901295e-01 4.55901295e-01
      2.35793918e-01 4.55901295e-01 4.35177088e-01 3.54330629e-01
      2.25922793e-01 4.16161388e-01 4.35177088e-01 4.35177088e-01
      1.67298362e-01 0. 2.23036736e-01 2.37929113e-02 4.27445740e-01
      4.27445740e-01 2.47442856e-01 1.95564225e-01 4.05999988e-01
      4.27445740e-01 4.27445740e-01 3.91885778e-03 1.88476503e-01
      1.13214038e-01 3.93514723e-01 3.93514723e-01 3.19266051e-01
      3.93514723e-01 3.93514723e-01 3.93514723e-01 2.67447174e-01</_>
    <_>
      1.44679517e-01 1.48209229e-01 1.98502541e-01 1.77201375e-01
      3.33603501e-01 5.04702985e-01 5.04702985e-01 5.04702985e-01
      7.60988817e-02 4.07390833e-01 1.12499716e-02 0. 0. 4.07390833e-01
      4.07390833e-01 4.07390833e-01 4.07390833e-01 4.07390833e-01
      4.81306285e-01 2.36878842e-01 2.86621228e-02 2.69031501e-03
      4.81306285e-01 4.81306285e-01 6.02571405e-02 8.94348025e-02
      4.81306285e-01 4.10054177e-01 2.07677588e-01 4.10054177e-01
      4.10054177e-01 3.34216207e-01 7.68597191e-03 1.70886032e-02
      4.10054177e-01 4.10054177e-01 2.55406588e-01 4.27446514e-01
      4.27446514e-01 1.44072860e-01 5.91294141e-03 1.89128872e-02
      4.27446514e-01 4.27446514e-01 4.22499537e-01 3.58470827e-01
      4.03241605e-01 9.89521965e-02 1.59967840e-01 3.50340009e-01
      2.82588869e-01 4.03241605e-01 4.03241605e-01 3.76408249e-01
      1.28705185e-02 4.90707979e-02 6.93919882e-02 1.12632111e-01
      1.50368679e-02 6.97016656e-01 6.97016656e-01 2.74963938e-02
      1.79059077e-02 5.71816921e-01 5.71816921e-01 5.28238341e-02
      9.23137926e-03 4.07822393e-02 5.71816921e-01 9.28944498e-02
      8.20407458e-03 1.14311064e-02 6.13507032e-02 7.08549935e-03
      1.12951398e-02 1.27849951e-02 5.45483120e-02 1.28034987e-02
      6.33087233e-02 7.00626016e-01 7.00626016e-01 3.38506937e-01
      3.96351546e-01 1.86463937e-01 1.02154315e-01 3.96351546e-01
      3.96351546e-01 3.96351546e-01 2.84844249e-01 3.55998158e-01
      4.90636751e-03 2.74863117e-03 6.20500386e-01 6.20500386e-01
      1.18097268e-01 3.63980234e-02 8.99269357e-02 3.39079618e-01
      2.92229354e-01 3.28289680e-02 4.69837934e-02 2.45423391e-01
      1.17489778e-01 3.34347099e-01 1.44803166e-01 5.11473119e-01
      5.11473119e-01 5.11473119e-01 2.96657369e-03 1.85356885e-02
      3.15033384e-02 0. 0. 3.46802533e-01 8.79900575e-01 3.08828264e-01
      1.87863386e-03 0. 4.73262280e-01 4.73262280e-01 3.15203220e-01
      4.73262280e-01 4.73262280e-01 3.34370905e-03 0. 0. 0.
      5.84328035e-03 3.90332155e-02 4.45867360e-01 4.45867360e-01
      4.45867360e-01 4.45867360e-01 4.45867360e-01 6.16570833e-05
      3.28742951e-01 1.86431766e-01 2.31818452e-01 1.18947312e-01
      3.46053421e-01 1.27011806e-01 4.65028048e-01 4.65028048e-01
      4.65028048e-01 4.14371938e-01 4.14371938e-01 4.14371938e-01
      3.28095734e-01 4.14371938e-01 2.08766088e-01 3.64592560e-02
      1.95092633e-01 3.44127566e-01 4.24706668e-01 2.00040266e-01
      4.24706668e-01 2.22724646e-01 5.64716384e-02 3.26706134e-02
      4.24706668e-01 4.24706668e-01 4.24706668e-01 3.72849812e-04
      2.66064657e-04 4.19023854e-04 0. 1.92505289e-02 1.86296348e-02
      7.04271376e-01 7.04271376e-01 1.59833841e-02 4.35753586e-03
      6.36301756e-01 6.36301756e-01 4.22569275e-01 3.22567672e-02
      5.00404425e-02 3.82927731e-02 1.60991419e-02 5.77714434e-03
      4.68433231e-01 4.00210992e-02 1.16677908e-02 2.92828269e-02
      4.68433231e-01 2.44955416e-03 3.39117974e-01 4.68433231e-01
      4.68433231e-01 5.88638783e-01 3.26869520e-03 2.79432186e-03
      1.15910340e-02 5.47432244e-01 5.88602619e-03 3.54214050e-02
      2.62318226e-03 5.88638783e-01 4.76334333e-01 1.12211809e-01
      8.70737620e-03 1.68634914e-02 1.90366089e-01 1.96147099e-01
      4.76334333e-01 4.76334333e-01 4.76334333e-01 1.13826543e-01
      4.50319111e-01 2.18277812e-01 1.66490316e-01 2.63877869e-01
      4.50319111e-01 4.50319111e-01 4.46406305e-01 1.72942489e-01
      3.54106903e-01 1.50991336e-01 1.85134321e-01 1.98040992e-01
      4.25512306e-02 0. 2.97984242e-01 5.83900392e-01 5.83900392e-01
      4.94360402e-02 2.43024863e-02 9.53527242e-02 1.20973215e-01
      8.50049257e-02 0. 2.93867569e-02 6.92184806e-01 6.92184806e-01
      4.58816826e-01 1.45090625e-01 2.98026830e-01 1.56085432e-01
      4.58816826e-01 3.70165437e-01 2.44111896e-01 1.81745693e-01
      4.58816826e-01 4.70162600e-01 4.70162600e-01 6.52933940e-02
      2.31095061e-01 4.70162600e-01 5.84343001e-02 1.97003826e-01
      1.05826505e-01 4.70162600e-01 5.18663168e-01 5.18663168e-01
      9.69175249e-02 6.07860601e-03 1.98323309e-01 5.18663168e-01
      3.70395094e-01 4.21672640e-03 4.25801240e-02 3.60732853e-01
      3.60732853e-01 3.60732853e-01 3.08027834e-01 1.81670994e-01
      3.60732853e-01 3.60732853e-01 3.60732853e-01 2.96211630e-01
      3.77526432e-01 2.15375766e-01 3.06912035e-01 3.77526432e-01
      3.77526432e-01 2.21232101e-02 3.77526432e-01 3.77526432e-01
      3.77526432e-01 4.22153115e-01 8.14520899e-05 2.44356284e-04
      2.68351704e-01 4.54442710e-01 4.54442710e-01 2.60170013e-01
      2.40815073e-01 4.54442710e-01 4.25872862e-01 1.62168685e-02
      4.86506149e-02 5.44218980e-02 2.42793351e-01 4.32945490e-01
      4.32945490e-01 4.32945490e-01 4.32945490e-01 2.93251008e-01
      4.01148528e-01 4.01148528e-01 4.01148528e-01 4.01148528e-01
      4.01148528e-01 1.62139669e-01 2.03755468e-01 1.93881989e-01
      6.67953417e-02 4.43222344e-01 4.43222344e-01 6.09439053e-02
      1.69372678e-01 4.43222344e-01 4.43222344e-01 3.96869004e-01
      1.24179743e-01 2.12443873e-01 3.46582942e-02 1.80383310e-01
      5.30722320e-01 5.30722320e-01 2.74066955e-01 3.70401442e-01
      1.84421152e-01 3.25844586e-01</_>
    <_>
      3.94073337e-01 2.74400681e-01 3.94073337e-01 2.60020792e-01
      3.94073337e-01 3.94073337e-01 3.94073337e-01 1.13962553e-01
      2.52389193e-01 4.44093853e-01 4.44093853e-01 1.98888212e-01
      1.76624954e-01 2.78504729e-01 4.44093853e-01 3.45421582e-01
      2.06047997e-01 3.06294590e-01 6.19172037e-01 7.86025003e-02
      1.82241127e-02 2.28346586e-02 3.71157497e-01 4.68223035e-01
      1.49567768e-01 2.00268533e-02 4.72916037e-01 3.86494935e-01
      6.02144673e-02 7.21987411e-02 4.79321212e-01 4.79321212e-01
      4.85896133e-03 3.88076704e-04 3.84350747e-01 4.79321212e-01
      3.97855610e-01 3.97855610e-01 3.97855610e-01 3.97855610e-01
      1.94748193e-01 1.48558780e-03 9.14441943e-02 3.97855610e-01
      3.97855610e-01 9.97001976e-02 2.79826790e-01 3.12433600e-01
      4.24074143e-01 4.24074143e-01 4.24074143e-01 4.24074143e-01
      2.24537864e-01 2.00332597e-01 4.64202613e-01 4.64202613e-01
      3.67549300e-01 1.12507746e-01 1.88163117e-01 2.61374414e-01
      2.57805914e-01 4.64202613e-01 1.75996706e-01 5.47819972e-01
      5.47819972e-01 2.73586124e-01 0. 2.00323872e-02 5.47819972e-01
      1.37690246e-01 1.18912860e-04 7.14204580e-05 1.28528386e-01
      1.17008217e-01 3.79775949e-02 3.34943026e-01 1.26970038e-01
      9.05894190e-02 5.40360063e-02 6.41291738e-01 6.41291738e-01
      1.74016982e-01 2.05320016e-01 4.50768232e-01 4.50768232e-01
      1.74870148e-01 1.08450808e-01 4.50768232e-01 4.50768232e-01
      2.60672301e-01 8.72891694e-02 8.07755142e-02 2.24444240e-01
      7.34227419e-01 3.20835710e-01 7.62666240e-02 2.90452987e-01
      1.94607496e-01 3.97586316e-01 4.65475582e-03 0. 3.64120036e-01
      4.47046995e-01 3.62763822e-01 1.54145539e-01 3.28660846e-01
      4.47046995e-01 4.47046995e-01 3.03688169e-01 4.53758389e-01
      4.53758389e-01 1.57239541e-01 3.11993174e-02 4.53758389e-01
      4.53758389e-01 2.30226740e-01 3.08603719e-02 2.31940467e-02
      4.45337743e-01 4.45337743e-01 4.45337743e-01 4.45337743e-01
      4.45337743e-01 5.59553355e-02 1.55247562e-02 3.61222168e-03 0.
      5.81639856e-02 2.49871433e-01 4.92727637e-01 2.50621051e-01
      1.18653238e-01 5.51815510e-01 5.51815510e-01 1.85455065e-04
      4.23744097e-02 1.64373666e-01 4.61659104e-01 1.19749591e-01
      4.28398550e-01 3.48189861e-01 4.61659104e-01 4.61659104e-01
      8.99197683e-02 3.61078531e-01 3.61078531e-01 3.61078531e-01
      2.17265800e-01 1.91164970e-01 3.61078531e-01 3.61078531e-01
      3.61078531e-01 3.61078531e-01 1.77671954e-01 1.26473621e-01
      5.29246867e-01 5.29246867e-01 1.93731077e-02 7.87418243e-03
      1.00510180e-01 5.29246867e-01 3.10330808e-01 1.29489675e-02
      1.28666356e-01 5.07974684e-01 4.81212914e-01 7.82485772e-03
      8.01980682e-03 4.22126681e-01 5.07974684e-01 2.28571922e-01
      1.28984973e-01 5.89962542e-01 6.63075149e-01 7.33385608e-02
      7.69194886e-02 6.15779981e-02 2.71041363e-01 2.96931773e-01
      1.10905305e-01 4.02319193e-01 7.68550485e-02 1.52950078e-01
      9.09660086e-02 2.18250349e-01 3.06958444e-02 4.99000609e-01
      4.99000609e-01 4.99000609e-01 7.02692688e-01 1.52259488e-02
      1.41239045e-02 2.04617530e-02 6.53654262e-02 1.66925676e-02
      5.92329539e-04 5.46091329e-03 7.02692688e-01 6.99857235e-01
      1.50993317e-02 0. 2.27117259e-02 7.31516182e-02 8.81297980e-03
      7.24768732e-04 8.50887224e-02 6.99857235e-01 9.74359587e-02
      5.04732668e-01 5.04732668e-01 1.92157760e-01 5.04732668e-01
      3.44570667e-01 2.25375026e-01 1.00395270e-01 6.83629513e-02
      2.34974753e-02 9.82990339e-02 2.40412757e-01 3.99092615e-01
      3.99092615e-01 3.70844096e-01 3.99092615e-01 3.99092615e-01
      3.91631097e-01 1.27366921e-02 2.43824050e-02 2.06649646e-01
      5.62575221e-01 2.78194305e-02 1.41253264e-03 2.59414744e-02
      5.62575221e-01 5.62575221e-01 3.80376995e-01 3.29147913e-02
      4.40874919e-02 5.29684007e-01 5.29684007e-01 4.06245440e-02
      1.84368994e-02 5.75392209e-02 5.29684007e-01 2.82804847e-01
      2.15355027e-02 0. 3.49998921e-01 7.55769432e-01 6.85862899e-02 0.
      9.44501255e-03 4.62097764e-01 4.77330446e-01 4.77330446e-01
      5.16278949e-03 2.56994724e-01 4.77330446e-01 4.77330446e-01
      1.33338481e-01 7.51448446e-04 1.47351460e-03 3.26055884e-01
      2.25826219e-01 6.81933598e-04 6.47359388e-03 1.99523792e-01
      5.09466171e-01 5.09466171e-01 5.09466171e-01 1.38139218e-01
      4.73046541e-01 2.83152372e-01 0. 9.37714055e-03 5.58909364e-02
      1.29598916e-01 4.73046541e-01 4.73046541e-01 4.73046541e-01
      3.68181080e-01 3.83805007e-01 3.83805007e-01 3.83805007e-01
      3.83805007e-01 2.78037935e-01 9.02736560e-02 3.83805007e-01
      1.96526214e-01 2.50590265e-01 6.29933700e-02 4.78926718e-01
      4.78926718e-01 4.78926718e-01 6.14457950e-02 5.36776893e-02
      6.56723455e-02 4.78926718e-01 4.98664826e-01 3.69470157e-02
      3.26352529e-02 7.29447901e-02 4.98664826e-01 4.98664826e-01
      2.12333158e-01 4.71869037e-02 4.40405250e-01 5.49519323e-02
      3.18464100e-01 4.55977052e-01 4.55977052e-01 4.55977052e-01
      4.55977052e-01 2.34475985e-01 6.20213114e-02 2.28139665e-02
      1.06337061e-02 3.71599086e-02 1.11479737e-01 3.92085612e-01
      4.96070683e-01 4.96070683e-01 4.96070683e-01 2.91820318e-01
      6.30497783e-02</_>
    <_>
      1.36649147e-01 3.21512646e-03 0. 0. 3.99519922e-03 6.80344030e-02
      6.92351043e-01 6.92351043e-01 1.05169274e-01 5.36019862e-01
      5.36019862e-01 1.24370113e-01 0. 2.09063128e-01 5.36019862e-01
      2.67705262e-01 4.28836007e-04 4.30526696e-02 7.77378827e-02
      1.56923719e-02 1.19068623e-01 1.17237329e-01 5.62369049e-01
      5.62369049e-01 8.19230080e-02 3.35459620e-01 4.56520170e-01
      2.84231943e-03 4.10793722e-02 4.54181470e-02 6.33037746e-01
      6.33037746e-01 1.13839485e-01 6.43136799e-02 3.45066249e-01
      2.28651315e-01 7.25284740e-02 2.47386172e-02 1.20577931e-01
      5.60024381e-01 1.80932388e-01 0. 1.94377098e-02 5.60024381e-01
      5.60024381e-01 4.47731465e-01 2.20470270e-03 0. 0. 4.33763325e-01
      7.42860585e-02 4.47731465e-01 4.47731465e-01 4.47731465e-01
      1.70854032e-01 7.57060125e-02 1.30922765e-01 0. 1.22178637e-03
      6.03594482e-01 6.03594482e-01 4.43857431e-01 1.27461359e-01
      6.81028605e-01 6.81028605e-01 2.09179565e-01 7.54702138e-03
      1.26507655e-01 7.33461455e-02 1.48141421e-02 1.32169509e-02
      3.23284999e-03 8.41402356e-03 2.03242898e-03 7.29813997e-04
      4.36986471e-03 3.84525619e-02 8.71476158e-03 9.83416289e-02
      7.00601935e-01 7.00601935e-01 1.30088627e-01 2.29144201e-01
      1.44700333e-01 0. 7.95631856e-03 2.96601266e-01 6.35465801e-01
      6.35465801e-01 8.72806013e-02 0. 1.03618829e-02 7.00454831e-01
      7.00454831e-01 1.07758738e-01 3.82186146e-03 0. 0. 0.
      6.45544799e-03 1.12422202e-02 2.18606427e-01 2.43162051e-01
      4.06805649e-02 5.27537847e-03 4.77213800e-01 6.15008533e-01
      5.28321445e-01 3.11165187e-03 7.53490254e-02 3.31020594e-01
      4.81258556e-02 4.67310660e-02 3.55585843e-01 7.90747344e-01
      3.47306579e-01 1.41155743e-03 2.62288540e-03 4.97297436e-01
      4.97297436e-01 7.62052238e-02 4.97297436e-01 4.97297436e-01 0. 0.
      0. 0. 0. 0. 4.84623641e-01 4.84623641e-01 4.84623641e-01
      4.84623641e-01 2.36049846e-01 0. 1.50737002e-01 1.72300357e-02
      5.16901128e-02 0. 7.41263200e-03 1.68617383e-01 5.59831083e-01
      5.59831083e-01 5.59831083e-01 4.87880677e-01 1.01781048e-01
      1.40369684e-01 1.07325308e-01 0. 3.78839076e-02 4.87880677e-01
      4.87880677e-01 4.87880677e-01 1.35847434e-01 2.67440617e-01
      5.22515655e-01 2.68920124e-01 2.51241177e-02 4.93876776e-03
      5.22515655e-01 5.22515655e-01 1.12966239e-01 2.41638720e-02
      2.04064902e-02 3.65179242e-03 0. 1.30484827e-04 1.66544542e-01
      6.92889333e-01 6.92889333e-01 6.43520728e-02 6.26605062e-04
      7.04612195e-01 7.04612195e-01 2.98744463e-03 1.16527808e-04
      1.87777594e-04 2.48378667e-04 7.38706221e-05 4.06080595e-04
      4.98753130e-01 0. 0. 0. 0. 1.33785041e-04 4.98753130e-01
      4.98753130e-01 4.98753130e-01 7.04537928e-01 0. 0. 6.62844349e-03
      1.18978480e-02 4.77124751e-03 2.65621953e-03 2.11548596e-03
      7.04537928e-01 6.87357128e-01 4.78850491e-03 4.33855021e-04 0.
      2.43156028e-04 0. 4.89065349e-02 2.14018106e-01 6.87357128e-01
      2.15269029e-02 4.63409007e-01 4.63409007e-01 2.80510131e-02
      3.36908817e-01 4.63409007e-01 4.63409007e-01 1.46723926e-01
      9.68594104e-03 7.50040810e-04 3.12782249e-05 9.38346784e-05 0. 0.
      4.96280845e-04 6.73596561e-01 6.73596561e-01 2.92933613e-01
      8.34346341e-04 4.50226031e-02 5.20159960e-01 5.20159960e-01
      5.20159960e-01 6.80681784e-03 2.41883267e-02 3.70831490e-01
      2.07197711e-01 1.73441775e-03 1.43898162e-03 3.65401829e-05
      2.24033669e-01 9.68703091e-01 4.16962206e-02 2.61297046e-05
      1.59062480e-03 3.66798602e-03 4.79816971e-03 1.02057864e-04
      1.47612463e-03 2.77174771e-01 9.51512754e-01 9.07873958e-02
      1.25664938e-03 1.95052475e-04 5.99869294e-03 1.97717309e-01
      4.03141350e-01 3.05123609e-02 1.17465332e-01 6.12279475e-01
      6.12279475e-01 1.65143669e-01 2.20889859e-02 3.13540571e-03
      1.97089687e-01 3.41114759e-01 6.71707839e-02 0. 1.63663849e-02
      6.43048584e-01 6.43048584e-01 4.58865613e-02 6.68442696e-02
      3.19552375e-03 1.52234271e-01 1.31170273e-01 0. 0. 0.
      6.90095067e-01 6.90095067e-01 1.60451587e-02 5.01503199e-02
      1.38808917e-02 6.66353330e-02 4.05954927e-01 4.05954927e-01
      4.05954927e-01 4.05954927e-01 4.05954927e-01 4.05954927e-01
      6.62614703e-01 1.05542786e-01 1.35296062e-01 7.09275948e-03
      2.72496529e-02 2.88259517e-02 7.15577677e-02 2.81211615e-01
      6.62614703e-01 4.72201556e-01 4.72201556e-01 2.03559939e-02 0.
      8.11223984e-02 3.27432781e-01 4.52012241e-01 8.85342807e-02
      4.72201556e-01 1.76673979e-01 4.82097238e-01 1.56040654e-01
      6.16214015e-02 4.82097238e-01 4.82097238e-01 4.82097238e-01
      1.99037567e-02 7.58813620e-02 0. 2.02510506e-02 6.07531555e-02 0.
      5.55804133e-01 5.55804133e-01 5.55804133e-01 2.52178609e-01 0.</_>
    <_>
      8.39131046e-03 1.51486311e-03 0. 2.35947929e-02 4.03538458e-02
      3.73125970e-01 6.52409971e-01 6.52409971e-01 2.69857552e-02
      1.06707916e-01 1.63039472e-02 5.52662043e-03 0. 3.02881569e-01
      4.72192615e-01 4.72192615e-01 4.72192615e-01 4.72192615e-01
      5.73184729e-01 2.05751080e-02 3.03839222e-02 3.43541354e-02
      5.73184729e-01 3.40786904e-01 0. 0. 4.67474610e-01 3.93635511e-01
      3.93635511e-01 1.25359401e-01 3.93635511e-01 3.93635511e-01
      2.43975118e-01 6.97242469e-02 3.93635511e-01 3.75795841e-01
      1.85881823e-01 2.62850404e-01 3.37209135e-01 1.00733921e-01
      6.10937811e-02 6.30902722e-02 5.03243268e-01 5.03243268e-01
      5.03243268e-01 2.17959404e-01 2.50916451e-01 2.66740054e-01
      2.15990275e-01 3.91871870e-01 3.91871870e-01 3.91871870e-01
      3.91871870e-01 3.91871870e-01 4.62246276e-02 3.34303498e-01
      5.19714914e-02 0. 5.12825847e-02 6.59386575e-01 6.59386575e-01
      6.78776428e-02 1.31364248e-03 6.61570013e-01 6.61570013e-01
      3.89418728e-03 0. 3.52821946e-02 1.35266691e-01 3.98312770e-02
      1.45315513e-01 2.75291711e-01 1.97664890e-02 1.92582998e-02
      3.41226254e-03 6.30082786e-02 1.91989578e-02 1.14319902e-02
      3.46260890e-02 7.02334464e-01 7.02334464e-01 2.01962069e-01
      3.70473713e-01 3.70473713e-01 1.75976083e-01 3.70473713e-01
      3.70473713e-01 3.17864656e-01 3.70473713e-01 3.70473713e-01 0.
      2.07639262e-02 6.65463388e-01 6.65463388e-01 1.34265542e-01
      2.52041779e-02 0. 1.98930323e-01 2.21374094e-01 1.64997011e-01
      3.79688650e-01 1.10832103e-01 1.77816838e-01 3.54710132e-01
      9.77485254e-02 3.19953501e-01 5.20465076e-01 5.20465076e-01
      1.58872642e-02 3.56108040e-01 4.88268942e-01 3.24897677e-01
      2.05611467e-01 4.88268942e-01 4.88268942e-01 7.07371756e-02 0. 0.
      5.00880063e-01 5.00880063e-01 4.64890122e-01 3.30310911e-01
      3.90791088e-01 1.10979721e-01 5.28006703e-02 1.36251114e-02 0.
      3.03138955e-03 9.76533517e-02 4.73313779e-01 4.73313779e-01
      4.73313779e-01 4.73313779e-01 2.99336493e-01 4.61125048e-03
      4.69255596e-01 2.02341244e-01 2.48620242e-01 3.03803245e-03
      5.36181591e-02 9.41885337e-02 4.69255596e-01 4.69255596e-01
      4.69255596e-01 3.96049827e-01 3.96049827e-01 3.96049827e-01
      3.96049827e-01 1.57980308e-01 7.24020926e-03 1.72916964e-01
      3.96049827e-01 3.96049827e-01 3.03994119e-01 3.83237362e-01
      4.73012209e-01 1.77575484e-01 2.41457615e-02 1.64823551e-02
      4.73012209e-01 4.73012209e-01 2.28873044e-01 8.32553208e-02
      3.73694599e-02 2.32974276e-01 1.83696337e-02 2.24925000e-02
      4.93476577e-02 6.71617091e-01 6.71617091e-01 1.58973515e-01 0.
      6.99983418e-01 6.99983418e-01 9.20297354e-02 2.64550955e-03
      3.56731866e-03 6.19529560e-02 2.67664269e-02 3.89693375e-03
      6.43775821e-01 8.51498824e-03 1.12337075e-04 7.88078643e-04 0.
      1.07287103e-02 2.21584365e-01 3.39691311e-01 6.43775821e-01
      7.04525173e-01 3.89880792e-04 0. 3.32261878e-03 1.47282965e-02
      5.24693029e-03 4.13150206e-04 0. 7.04525173e-01 4.98654455e-01
      5.25881012e-04 1.65163004e-03 2.55406206e-03 1.77088156e-02
      8.44599400e-03 4.98654455e-01 4.98654455e-01 4.98654455e-01
      6.31251112e-02 5.15396774e-01 4.20685023e-01 6.49124617e-03
      8.81578848e-02 5.15396774e-01 5.15396774e-01 8.29437375e-02
      4.79243323e-02 1.85582309e-03 6.09397469e-03 2.55901902e-03 0.
      2.74957274e-03 1.20777683e-03 1.72957912e-01 6.93938792e-01
      6.93938792e-01 1.30981460e-01 1.00079417e-01 4.74353731e-01
      5.02642810e-01 5.02642810e-01 8.00855607e-02 3.31127197e-01
      2.25423992e-01 2.65747815e-01 0. 0. 0. 3.44803184e-02
      9.13500428e-01 3.93807322e-01 1.10036386e-02 2.92568188e-03 0.
      3.26473638e-03 1.06488233e-02 9.20618512e-03 1.67762563e-01
      9.36734200e-01 2.90984243e-01 1.25952344e-02 0. 1.26933373e-04
      4.89486217e-01 4.89486217e-01 2.76893023e-02 1.72002554e-01
      4.89486217e-01 4.89486217e-01 6.83071464e-02 3.85707766e-02
      1.48010626e-02 2.51132786e-01 2.09443182e-01 2.18397286e-02
      1.89042360e-01 2.08222285e-01 6.09789073e-01 6.09789073e-01
      4.92753722e-02 2.47574791e-01 4.64059412e-01 4.64059412e-01
      4.64059412e-01 1.48316950e-01 7.18439638e-04 0. 5.27903661e-02
      3.30416381e-01 4.64059412e-01 2.27917939e-01 8.90981499e-03
      5.29948482e-03 0. 0. 5.99873178e-02 3.69126797e-01 5.90561867e-01
      6.72765315e-01 6.91645145e-01 1.73166648e-01 7.72409812e-02
      2.65379855e-03 1.24828015e-02 3.61189013e-03 6.77704636e-04
      1.48422755e-02 6.91645145e-01 3.90961140e-01 3.90961140e-01
      1.98726982e-01 3.90961140e-01 3.90961140e-01 3.90961140e-01
      3.90961140e-01 8.52185041e-02 1.79543704e-01 2.02059224e-01
      2.78839231e-01 3.81637335e-01 2.35963166e-01 3.81637335e-01
      3.81637335e-01 3.81637335e-01 3.06095004e-01 3.81637335e-01
      8.69696066e-02 1.38613686e-01 4.51664120e-01 4.51664120e-01
      4.51664120e-01 3.76271844e-01 4.51664120e-01 5.97067364e-02
      8.69696066e-02</_>
    <_>
      4.11964655e-01 4.11964655e-01 4.11964655e-01 2.53012218e-02
      1.82270765e-01 7.18997642e-02 4.11964655e-01 4.11964655e-01
      3.29055846e-01 4.15908247e-01 4.15908247e-01 5.88749871e-02
      3.16989183e-01 4.15908247e-01 4.15908247e-01 4.15908247e-01
      1.61964983e-01 2.76724733e-02 4.36465502e-01 4.36465502e-01
      6.39451807e-03 7.04775974e-02 4.36465502e-01 4.36465502e-01
      1.90212935e-01 1.33196965e-01 4.17972773e-01 4.96650040e-01
      1.25887021e-02 4.55017686e-02 4.96650040e-01 4.96650040e-01
      3.70090380e-02 8.36852938e-04 6.92483336e-02 4.96650040e-01
      3.24010581e-01 2.09631100e-01 4.39850569e-01 4.39850569e-01
      1.91078648e-01 3.21494974e-02 1.87775195e-01 4.39850569e-01
      4.39850569e-01 2.42887527e-01 3.83138627e-01 3.83138627e-01
      3.83138627e-01 2.36138105e-01 2.54091658e-02 3.83138627e-01
      3.83138627e-01 3.83138627e-01 2.40499556e-01 4.85716075e-01
      4.58981037e-01 2.02766098e-02 4.59016636e-02 4.85716075e-01
      4.85716075e-01 1.19943507e-01 4.44994792e-02 5.35429478e-01
      5.35429478e-01 4.61836047e-02 6.05107285e-03 1.12829525e-02
      5.35429478e-01 3.35907787e-01 9.43542831e-03 1.39207914e-01
      1.82546809e-01 1.31044865e-01 8.64327536e-04 1.48133542e-02
      2.91369762e-02 1.36289299e-02 1.32224103e-02 6.86012387e-01
      6.86012387e-01 1.66775987e-01 2.20679373e-01 2.30416641e-01
      1.68018624e-01 6.94854558e-02 2.51871258e-01 5.70340991e-01
      5.70340991e-01 3.42963517e-01 8.66072327e-02 6.42930716e-02
      4.45133150e-01 5.09697735e-01 4.95794892e-01 5.09697735e-01
      5.60724437e-02 2.60148123e-02 1.26153156e-01 2.81358429e-04
      3.36006779e-04 4.95294780e-01 4.95294780e-01 2.25342400e-02
      1.70683824e-02 1.13957353e-01 4.95294780e-01 4.95294780e-01
      5.70941484e-03 4.01249900e-03 2.50035096e-02 9.83948819e-03
      8.46875459e-03 4.97478575e-01 8.32606614e-01 2.23896459e-01
      7.05739891e-04 1.80261838e-03 4.56305325e-01 4.99103159e-01
      1.95458829e-01 4.99103159e-01 4.99103159e-01 3.56473736e-02
      3.25134536e-03 0. 1.23127238e-05 6.05946891e-02 2.11481720e-01
      3.82780224e-01 3.07899892e-01 2.04813376e-01 5.75580060e-01
      5.75580060e-01 0. 9.33633372e-02 7.16122836e-02 2.71041960e-01
      5.34943230e-02 4.35185045e-01 4.67321724e-01 4.67321724e-01
      4.67321724e-01 2.46184736e-01 3.89225990e-01 3.89225990e-01
      3.89225990e-01 6.17652461e-02 1.17385112e-01 2.65725046e-01
      3.89225990e-01 3.89225990e-01 3.87844265e-01 1.35280848e-01
      3.09257448e-01 8.36984336e-01 4.00948554e-01 3.08454386e-03
      4.38732747e-03 4.88237602e-05 3.81723605e-02 1.22139253e-01
      1.47176720e-03 2.81811822e-02 2.07201540e-02 0. 0. 0.
      7.04181373e-01 7.04181373e-01 1.47176720e-03 3.74599770e-02
      6.88909233e-01 6.88909233e-01 1.75591663e-01 6.31035715e-02
      4.22424003e-02 5.19530959e-02 5.58283292e-02 1.06296223e-02
      4.09060568e-01 6.83489665e-02 2.23628104e-01 9.50545352e-03 0.
      4.01106616e-03 5.07547319e-01 5.07547319e-01 5.07547319e-01
      7.00979829e-01 9.23559244e-04 1.11983958e-04 5.70814218e-03
      9.98765081e-02 1.57297458e-02 2.10870916e-04 9.97654744e-04
      7.00979829e-01 6.99961066e-01 0. 1.16212422e-03 1.26562594e-02
      1.09740488e-01 1.92834437e-02 4.65165777e-03 2.28847526e-02
      6.99961066e-01 2.47570977e-01 4.84963477e-01 4.84963477e-01
      1.05084606e-01 2.46654570e-01 3.61781597e-01 4.84963477e-01
      1.48291796e-01 5.94855919e-02 3.70484218e-02 4.41327058e-02
      2.76806988e-02 6.95264712e-02 1.66562855e-01 1.04978137e-01
      6.65838897e-01 6.65838897e-01 2.42870018e-01 6.93678809e-03
      8.67047235e-02 7.89559111e-02 9.58953127e-02 2.32257769e-02
      7.96153247e-02 4.06055748e-02 6.93381429e-01 6.93381429e-01
      2.07590908e-02 7.89215229e-03 8.18468072e-03 3.28771085e-01
      9.18865621e-01 1.79725900e-01 2.84373537e-02 4.29180227e-02
      5.39977960e-02 8.85294974e-02 6.53323531e-02 1.74904447e-02
      1.02407828e-01 8.72320831e-01 4.42511171e-01 1.29427006e-02
      6.95156083e-02 8.14671516e-02 4.89795983e-01 4.89795983e-01 0.
      1.67327434e-01 4.89795983e-01 4.89795983e-01 7.00404719e-02
      3.12935263e-02 4.03019786e-02 3.48169982e-01 5.29903829e-01
      2.52856966e-02 0. 1.29975647e-01 5.29903829e-01 5.29903829e-01
      1.04032107e-01 5.23058176e-02 3.72571230e-01 2.87778199e-01
      3.72571230e-01 3.72571230e-01 3.72571230e-01 5.35402931e-02
      3.72571230e-01 2.78816879e-01 3.72571230e-01 4.16520208e-01
      4.14819211e-01 5.12214154e-02 0. 2.45920569e-01 2.58277655e-01
      4.16520208e-01 4.16520208e-01 4.16520208e-01 4.35084909e-01
      3.49694048e-04 0. 4.26617190e-02 2.17575863e-01 4.35084909e-01
      4.35084909e-01 4.35084909e-01 4.35084909e-01 4.99135166e-01
      1.68968946e-01 9.74402800e-02 2.55236775e-01 4.99135166e-01
      4.65344459e-01 1.02516878e-02 2.60195491e-04 4.20596510e-01
      2.16513455e-01 4.14130688e-01 4.14130688e-01 2.15927884e-01
      2.45353907e-01 4.14130688e-01 4.14130688e-01 3.91433448e-01
      5.40794842e-02 8.79597217e-02 4.08756658e-02 6.89909160e-02
      3.24048661e-02 1.12977207e-01 5.66864491e-01 5.66864491e-01
      5.66864491e-01 4.84966636e-02</_>
    <_>
      3.80934149e-01 3.80934149e-01 3.80934149e-01 3.80934149e-01
      4.27284874e-02 3.80934149e-01 3.80934149e-01 1.09851509e-01
      3.34120095e-01 2.59504557e-01 1.59389332e-01 2.76879501e-03
      3.30735743e-02 6.51050448e-01 6.51050448e-01 1.35200426e-01
      1.39117837e-02 1.82880059e-01 3.40781249e-02 9.67040844e-03
      3.65319960e-02 1.55981481e-01 6.43668592e-01 6.43668592e-01
      9.21044350e-02 3.11294854e-01 1.80686951e-01 6.03002384e-02
      4.36263680e-02 1.78697914e-01 5.30165851e-01 5.30165851e-01
      4.56217043e-02 2.23535951e-02 3.33802968e-01 5.30165851e-01
      9.03073475e-02 4.12504256e-01 2.59137034e-01 4.12504256e-01
      2.72250563e-01 2.04658896e-01 3.52032959e-01 4.12504256e-01
      4.12504256e-01 4.48758364e-01 2.85467833e-01 4.48758364e-01 0.
      1.93267912e-01 6.58584684e-02 4.03012127e-01 3.25214922e-01
      4.48758364e-01 8.27295182e-04 0. 0. 0. 9.54751298e-03
      7.03250110e-01 7.03250110e-01 6.13389947e-02 2.02855351e-03
      5.53335726e-01 5.53335726e-01 5.28098226e-01 4.85309958e-02
      2.86575317e-01 1.26613691e-01 4.69380841e-02 2.20803600e-02
      4.84661385e-03 2.68979743e-03 1.01381811e-04 3.04145418e-04
      2.35565323e-02 2.01682940e-01 3.72711048e-02 2.12353632e-01
      6.72889650e-01 6.72889650e-01 1.64265782e-01 4.36378956e-01
      4.36378956e-01 2.62065202e-01 1.56327754e-01 3.05847436e-01
      4.36378956e-01 4.36378956e-01 1.42450690e-01 2.90992651e-02
      1.64993972e-01 6.06499910e-01 6.06499910e-01 4.98991497e-02
      4.14918140e-02 3.32489014e-02 3.95053118e-01 2.62309134e-01
      6.68158904e-02 8.60112831e-02 4.30964053e-01 4.50149059e-01
      2.82366037e-01 1.62540466e-01 3.91545475e-01 4.50149059e-01
      3.64945292e-01 4.30337415e-04 5.51934587e-03 1.78770516e-02
      1.10534281e-02 4.44780337e-03 1.11205794e-01 7.21766889e-01
      6.77487314e-01 8.10182755e-05 2.58324505e-03 4.97467726e-01
      4.97467726e-01 1.00343533e-01 4.90538955e-01 4.97467726e-01
      4.34797443e-02 2.58097448e-03 2.82588811e-03 3.85474530e-03
      2.73802057e-02 3.04244505e-03 5.13210714e-01 3.86260390e-01
      2.33877152e-01 5.13210714e-01 5.13210714e-01 7.03488383e-03
      2.69299656e-01 3.56067717e-01 4.41552788e-01 1.28012732e-01 0.
      4.48612822e-03 4.41552788e-01 4.41552788e-01 4.41552788e-01
      3.91614646e-01 2.13678584e-01 3.91614646e-01 2.58603424e-01
      3.91614646e-01 2.52021074e-01 3.91614646e-01 2.30713516e-01
      3.91614646e-01 4.19646174e-01 4.19646174e-01 4.19646174e-01
      1.94798648e-01 5.11798859e-02 4.39039655e-02 4.19646174e-01
      4.19646174e-01 2.69814551e-01 6.91143330e-03 0. 0. 0.
      1.65227719e-03 1.28526299e-03 7.04272985e-01 7.04272985e-01
      3.02743930e-02 4.49169966e-05 6.12406850e-01 6.12406850e-01
      4.93658632e-01 6.72371686e-03 0. 6.98940316e-03 2.60736491e-03
      1.10582903e-03 5.07666409e-01 6.46808138e-03 1.44864023e-02
      2.62223426e-02 4.02096450e-01 9.66949109e-03 2.42981225e-01
      5.07666409e-01 5.07666409e-01 6.51228189e-01 5.28224860e-04
      4.48273466e-04 3.05233020e-02 3.79915297e-01 5.78790344e-03
      5.66111063e-04 5.71679149e-04 6.51228189e-01 4.93939787e-01
      6.71282932e-02 3.55792791e-02 3.06699355e-03 7.68593252e-02
      8.64405110e-02 4.93939787e-01 4.93939787e-01 4.93939787e-01
      1.67436436e-01 4.57405001e-01 2.02764556e-01 1.72510102e-01
      2.13560879e-01 4.57405001e-01 4.57405001e-01 4.57405001e-01
      1.18479513e-01 5.91027141e-02 6.40955865e-02 4.15922590e-02
      8.25672150e-02 3.55877250e-01 7.43748993e-02 3.52633268e-01
      6.00551546e-01 6.00551546e-01 4.42326367e-02 6.14039674e-02
      6.92239478e-02 6.88909292e-02 8.87845010e-02 5.40950261e-02
      1.89261008e-02 6.95207894e-01 6.95207894e-01 2.93193519e-01
      2.29922794e-02 8.18976834e-02 3.95824373e-01 5.93895793e-01
      1.49278417e-01 6.47296235e-02 1.10888340e-01 5.93895793e-01
      1.90261513e-01 2.14380816e-01 3.86423543e-02 1.69097945e-01
      8.14964771e-01 2.78226465e-01 1.47133216e-01 2.04535335e-01
      2.73057759e-01 4.95245188e-01 4.95245188e-01 2.33912421e-03
      1.26252323e-01 4.06530768e-01 4.95245188e-01 2.61897057e-01
      7.14088604e-02 6.59446493e-02 3.65372151e-01 2.50635326e-01
      3.65372151e-01 2.97249913e-01 2.21895516e-01 3.65372151e-01
      3.65372151e-01 3.65372151e-01 3.58402759e-01 4.76992458e-01
      3.22546959e-01 1.78740531e-01 0. 2.56323330e-02 3.32975946e-03
      4.76992458e-01 4.19544280e-01 4.76992458e-01 2.76597619e-01
      8.32079127e-02 1.41612915e-02 4.70371507e-02 1.07797362e-01
      5.74898645e-02 5.45826912e-01 5.45826912e-01 5.45826912e-01
      6.55401111e-01 2.49347568e-01 1.46230623e-01 2.19183834e-03 0. 0.
      2.01049577e-02 2.24474788e-01 6.55401111e-01 2.61795819e-01
      3.82051677e-01 3.82051677e-01 2.82175273e-01 3.82051677e-01
      3.82051677e-01 3.82051677e-01 3.23097765e-01 1.17531911e-01
      5.58707565e-02 4.78526950e-01 4.88002747e-01 5.23713157e-02
      8.68565291e-02 1.91642478e-01 4.88002747e-01 4.88002747e-01
      3.95320766e-02 1.07255513e-02 9.44951400e-02 3.87026548e-01
      1.11308679e-01 3.69541109e-01 5.09268939e-01 5.09268939e-01
      4.09469187e-01 2.74767131e-02</_>
    <_>
      4.29605484e-01 9.46886931e-03 6.21553771e-02 4.42133956e-02
      4.29605484e-01 2.70982444e-01 4.29605484e-01 4.22049671e-01
      4.29605484e-01 4.07090724e-01 4.07090724e-01 1.49946325e-02
      1.05364379e-02 3.55004147e-02 4.07090724e-01 4.07090724e-01
      4.07090724e-01 4.07090724e-01 4.78286892e-01 4.78286892e-01
      1.48679078e-01 7.96508342e-02 4.78286892e-01 4.78286892e-01
      9.14112777e-02 7.64878839e-02 1.93734989e-01 1.46818325e-01
      1.42583577e-02 3.99934202e-01 3.99934202e-01 3.99934202e-01
      3.63700449e-01 2.05501333e-01 3.99934202e-01 3.99934202e-01
      2.22110108e-01 1.33817568e-01 7.17491657e-02 4.93510127e-01
      5.93183748e-02 7.85222501e-02 2.03989327e-01 5.59987307e-01
      5.59987307e-01 4.94163483e-01 3.87253799e-02 1.29468232e-01
      3.55395721e-03 0. 0. 4.94163483e-01 4.94163483e-01 4.94163483e-01
      2.64926464e-04 7.73074776e-02 7.39733577e-02 0. 2.26232726e-02
      6.87069774e-01 6.87069774e-01 1.92486316e-01 2.64926464e-04
      6.69744611e-01 6.69744611e-01 1.02892280e-01 4.57966030e-02
      1.12246405e-02 2.82095015e-01 2.63967700e-02 2.53504422e-02
      4.97086570e-02 1.12418057e-02 2.29246207e-02 3.09087504e-02
      7.32286368e-03 1.87403038e-02 2.93863546e-02 1.28970556e-02
      7.03539252e-01 7.03539252e-01 2.96079338e-01 2.92261302e-01
      3.73055965e-01 0. 3.73055965e-01 3.73055965e-01 3.73055965e-01
      3.56846690e-01 3.73055965e-01 1.69836298e-01 1.86018094e-01
      6.18932426e-01 6.18932426e-01 2.30393127e-01 1.65159315e-01
      1.36221230e-01 2.26323217e-01 1.18665077e-01 1.44607678e-01
      1.79782316e-01 9.09784287e-02 4.43114609e-01 8.97111893e-02
      6.35543391e-02 4.91644055e-01 4.91644055e-01 4.91644055e-01
      2.41827918e-03 1.02673732e-01 3.87053132e-01 2.65264907e-03
      7.46336672e-03 6.19869649e-01 6.19869649e-01 2.54611671e-01
      9.29902587e-03 0. 4.61159676e-01 4.61159676e-01 3.73382688e-01
      4.61159676e-01 4.61159676e-01 7.28415102e-02 5.52805723e-04
      3.32021620e-04 0. 4.99668643e-02 3.14754039e-01 4.63697642e-01
      4.63697642e-01 2.74423242e-01 4.63697642e-01 4.16469783e-01 0.
      1.48942962e-01 3.31638932e-01 3.87339264e-01 0. 3.74781340e-02
      7.41230249e-02 5.59708595e-01 5.59708595e-01 2.80650049e-01
      4.29101229e-01 2.67901421e-01 4.29101229e-01 5.74718826e-02 0. 0.
      4.29101229e-01 4.29101229e-01 4.29101229e-01 1.10398009e-01
      7.23930299e-02 4.41331595e-01 4.41331595e-01 6.42907098e-02
      1.27243279e-02 4.41331595e-01 4.41331595e-01 4.41331595e-01
      1.94707571e-03 2.70138737e-02 2.96786334e-02 2.42671594e-02
      1.59357395e-03 2.59970594e-03 7.03823745e-01 7.03823745e-01
      5.07051731e-03 9.48330096e-04 7.04566777e-01 7.04566777e-01
      8.08010995e-03 5.34015149e-03 5.23020921e-04 2.70197890e-03
      5.90007473e-03 9.48329805e-04 4.97420281e-01 6.95407912e-02
      4.05446300e-03 0. 2.14906633e-02 3.16546159e-03 4.97420281e-01
      4.97420281e-01 4.97420281e-01 6.98903203e-01 7.10428655e-02
      1.52761571e-03 0. 0. 0. 7.95740262e-03 1.04781628e-01
      6.98903203e-01 6.31192863e-01 2.05693906e-03 9.49670933e-03
      1.25370190e-01 1.66615888e-01 1.55630261e-01 1.69489846e-01
      3.16810012e-01 6.31192863e-01 1.66693747e-01 4.27697718e-01
      4.27697718e-01 0. 2.30882019e-01 4.27697718e-01 4.27697718e-01
      4.27697718e-01 2.79254746e-03 5.38114691e-04 3.05340334e-04
      9.16021003e-04 0. 4.08861844e-04 4.74263765e-02 1.83655679e-01
      8.60060871e-01 4.64470565e-01 9.01527405e-02 1.08842954e-01
      4.97134119e-01 4.97134119e-01 4.97134119e-01 1.28855795e-01
      3.91669542e-01 1.50416493e-01 2.02483460e-01 3.26039060e-03
      5.88669488e-03 4.42417013e-03 1.52912006e-01 9.82307255e-01
      4.17593680e-02 2.73726066e-03 6.15662429e-03 6.09748065e-03
      3.00688506e-03 5.63715491e-03 8.37274711e-04 7.21948147e-02
      9.89528775e-01 7.52002299e-02 7.04578916e-03 9.51327616e-04
      1.64590753e-03 3.07493895e-01 3.90992016e-01 1.19216718e-01
      1.31788179e-01 5.54484367e-01 5.54484367e-01 3.02097768e-01
      9.63642970e-02 0. 1.70939997e-01 4.11958724e-01 1.21193022e-01
      6.96292371e-02 6.76265061e-02 5.16155899e-01 5.16155899e-01
      4.12120849e-01 2.62921721e-01 2.09388137e-01 0. 0. 0. 0.
      1.19535856e-01 5.99340856e-01 5.99340856e-01 4.66330737e-01
      2.74296016e-01 1.43699750e-01 1.36054963e-01 1.16696302e-03
      6.51405938e-03 0. 1.25667423e-01 6.56965077e-01 6.56965077e-01
      5.24237037e-01 2.21173719e-01 5.42046800e-02 1.12370737e-02
      2.60489255e-01 6.45344928e-02 2.15150088e-01 5.24237037e-01
      5.24237037e-01 4.56082076e-01 4.56082076e-01 1.35415748e-01
      3.30756011e-04 1.78239733e-01 3.99221450e-01 4.00144935e-01
      4.25600931e-02 4.56082076e-01 3.23932648e-01 4.86848891e-01
      2.34086961e-02 1.62673835e-02 4.86848891e-01 4.86848891e-01
      4.21003193e-01 9.83787701e-03 3.14068906e-02 2.21663695e-02
      3.97216491e-02 9.12582874e-02 9.02210176e-02 5.43570101e-01
      2.54665792e-01 5.43570101e-01 5.43570101e-01 1.57399639e-01</_>
    <_>
      9.98866633e-02 9.85340327e-02 4.42685246e-01 5.44287682e-01
      5.44287682e-01 1.73152253e-01 1.64701492e-01 3.04499954e-01
      1.91262975e-01 4.93165255e-01 4.93165255e-01 2.72239968e-02
      1.84052736e-02 2.73012310e-01 4.93165255e-01 3.40355068e-01
      1.07789598e-01 2.49725267e-01 4.35473531e-01 4.35473531e-01
      4.22884710e-02 1.41083211e-01 4.35473531e-01 4.35473531e-01
      1.47854641e-01 6.25315011e-02 4.35473531e-01 2.00964004e-01
      1.11039663e-02 4.12490852e-02 5.39327264e-01 5.39327264e-01
      2.89331786e-02 4.41096537e-02 2.77485758e-01 5.39327264e-01
      2.49174550e-01 4.09609452e-02 2.47509480e-01 5.10421813e-01
      1.25449285e-01 3.90920304e-02 3.50512355e-03 5.43936133e-01
      5.43936133e-01 4.00574684e-01 4.00574684e-01 3.73156667e-01
      4.55389060e-02 4.00574684e-01 3.24243873e-01 2.96375573e-01
      1.40945137e-01 4.00574684e-01 4.77957010e-01 4.77957010e-01
      3.40927333e-01 1.02346435e-01 5.34234308e-02 1.79958299e-01
      3.62361223e-01 4.77957010e-01 1.29021198e-01 5.57204127e-01
      5.57204127e-01 1.98508337e-01 1.76741034e-02 1.39795067e-02
      5.57204127e-01 1.51920304e-01 3.66553827e-03 0. 1.68247689e-02
      2.50747167e-02 1.98138282e-01 2.75849938e-01 1.49981499e-01 0.
      1.50824785e-01 6.45001590e-01 6.45001590e-01 3.67285818e-01
      3.67285818e-01 3.67285818e-01 3.67285818e-01 3.41374516e-01
      2.12179452e-01 3.67285818e-01 3.67285818e-01 1.59312889e-01
      1.19511463e-01 9.40186083e-02 5.40254533e-01 5.40254533e-01
      1.08850241e-01 2.62717251e-03 1.70271862e-02 5.40254533e-01
      2.89330602e-01 3.39417309e-01 2.90957242e-01 2.97420263e-01
      3.75754207e-01 3.75754207e-01 4.43937890e-02 3.75754207e-01
      3.75754207e-01 3.75754207e-01 3.21164094e-02 4.73107636e-01
      4.73107636e-01 2.16611579e-01 9.86632556e-02 4.73107636e-01
      4.73107636e-01 2.05304936e-01 1.07022775e-02 2.61994582e-02
      4.42718804e-01 4.42718804e-01 4.42718804e-01 4.42718804e-01
      4.42718804e-01 9.14755762e-02 7.86870942e-02 1.82275586e-02
      4.56156395e-03 3.68369818e-02 6.80280477e-02 3.89122188e-01
      4.17679965e-01 1.21511959e-01 5.69066823e-01 5.69066823e-01 0.
      8.67227837e-02 3.67390871e-01 2.53012449e-01 3.67390871e-01
      3.67390871e-01 3.67390871e-01 3.67390871e-01 3.67390871e-01
      3.39023650e-01 1.45744190e-01 1.34394512e-01 3.73337924e-01
      3.73337924e-01 3.73337924e-01 3.73337924e-01 3.73337924e-01
      3.73337924e-01 3.47389758e-01 1.81757674e-01 1.20897606e-01
      4.34907734e-01 2.81619132e-01 1.93067685e-01 4.34907734e-01
      4.34907734e-01 4.34907734e-01 2.73569435e-01 3.51855308e-01
      3.51855308e-01 3.51855308e-01 3.51855308e-01 3.51855308e-01
      7.78928548e-02 3.51855308e-01 3.51855308e-01 3.51855308e-01
      4.07977439e-02 5.85486710e-01 5.85486710e-01 1.83149770e-01
      2.78542638e-02 4.95721214e-02 3.61088902e-01 3.41932416e-01
      1.51062503e-01 4.25941199e-01 1.57461897e-01 1.73233986e-01
      1.47858396e-01 4.25941199e-01 1.09313235e-01 4.25941199e-01
      4.25941199e-01 4.25941199e-01 5.72113931e-01 0. 0. 6.38076067e-02
      5.72113931e-01 9.08974260e-02 1.44873059e-03 2.88113789e-03
      5.72113931e-01 4.02327776e-01 1.52634621e-01 5.11226291e-03
      3.80958803e-02 4.02327776e-01 4.02327776e-01 4.02327776e-01
      4.02327776e-01 4.02327776e-01 2.10180283e-01 2.34733805e-01
      4.40878868e-02 1.04553930e-01 2.51048356e-02 4.69714612e-01
      4.69714612e-01 4.69714612e-01 4.69714612e-01 4.19362456e-01
      4.19362456e-01 4.19362456e-01 4.19362456e-01 4.19362456e-01
      2.28109032e-01 1.03265420e-01 2.00791210e-01 1.16067700e-01
      6.05368093e-02 3.89814959e-03 2.38874868e-01 5.56687713e-01
      5.16394340e-02 7.60398386e-03 3.56609374e-02 5.56687713e-01
      5.56687713e-01 4.70477819e-01 1.45235151e-01 1.38262570e-01
      3.28623176e-01 4.70477819e-01 4.17031795e-01 5.31837754e-02
      7.94069842e-02 4.70477819e-01 4.34454352e-01 4.34454352e-01
      1.13027871e-01 2.87888467e-01 4.34454352e-01 3.15618306e-01
      1.24206871e-01 1.73091099e-01 4.34454352e-01 5.39319396e-01
      5.39319396e-01 8.67031608e-03 1.11848675e-02 3.68982479e-02
      5.39319396e-01 3.46586525e-01 1.25456164e-02 1.32895643e-02
      3.83316129e-01 9.10046399e-02 3.93870950e-01 5.38526177e-01
      5.38526177e-01 1.78777337e-01 1.27557099e-01 1.88742012e-01
      1.42821774e-01 4.24824476e-01 3.81009191e-01 3.71650994e-01
      1.04560927e-01 2.06676140e-01 3.81362379e-01 3.50101680e-01
      1.72788128e-01 4.24824476e-01 3.70943278e-01 3.70943278e-01
      2.89674938e-01 3.70943278e-01 3.70943278e-01 3.64767194e-01
      3.70943278e-01 2.36672223e-01 1.87933818e-01 1.67287841e-01
      2.30047293e-02 6.52202638e-03 4.94570494e-01 4.94570494e-01
      1.02214344e-01 4.94570494e-01 2.60247022e-01 3.93099487e-01
      3.31933379e-01 2.89955378e-01 2.48982668e-01 5.55687696e-02
      5.80022991e-01 5.80022991e-01 1.91427886e-01 5.69012538e-02
      1.48789659e-01 3.43923271e-01 3.43923271e-01 3.43923271e-01
      2.24272251e-01 3.43923271e-01 3.43923271e-01 3.43923271e-01
      3.43923271e-01 3.43923271e-01 3.78228724e-01 3.62107188e-01
      3.78228724e-01 1.16233438e-01 3.78228724e-01 1.07527032e-01
      3.78228724e-01 3.53189111e-01 3.78228724e-01</_>
    <_>
      1.12607539e-01 2.56538182e-01 1.77873984e-01 4.16762475e-03
      8.63572955e-03 3.73073551e-03 6.64471745e-01 6.64471745e-01
      9.14662611e-03 4.39088643e-01 4.39088643e-01 1.26402406e-03
      1.25938430e-02 4.39088643e-01 4.39088643e-01 4.39088643e-01
      6.80684224e-02 1.63787276e-01 4.61615294e-01 3.90672654e-01
      1.89880244e-02 1.38818100e-01 4.61615294e-01 4.61615294e-01
      2.36009747e-01 4.98550758e-02 3.54515135e-01 4.19755369e-01
      1.17191166e-01 3.06357324e-01 4.19755369e-01 4.19755369e-01
      2.64895130e-02 8.08934569e-02 4.19755369e-01 4.19755369e-01
      1.94037989e-01 5.71607389e-02 2.06637666e-01 1.39752433e-01
      6.41149133e-02 1.80504799e-01 5.33800364e-01 5.33800364e-01
      5.33800364e-01 3.65365893e-01 3.65365893e-01 2.36058757e-01
      7.86155388e-02 3.65365893e-01 3.65365893e-01 3.65365893e-01
      3.65365893e-01 3.65365893e-01 3.12632024e-02 2.32231289e-01
      8.15018937e-02 1.17533524e-02 0. 6.56268299e-01 6.56268299e-01
      2.27294326e-01 1.36819541e-01 6.11100197e-01 6.11100197e-01
      4.91884835e-02 5.99969644e-03 9.34510306e-03 4.79134202e-01
      1.20929688e-01 1.21143945e-04 1.65882576e-02 2.07905620e-02
      4.72107762e-03 1.69260632e-02 6.59392215e-03 2.04842165e-02
      1.68300290e-02 2.42848292e-01 6.82905495e-01 6.82905495e-01
      7.32883140e-02 1.50491595e-01 2.26825058e-01 0. 5.34186184e-01
      5.34186184e-01 5.34186184e-01 2.30272427e-01 7.81458095e-02
      9.30730836e-04 1.67722069e-02 5.79700828e-01 5.79700828e-01
      1.28022516e-02 7.60351261e-03 4.24434344e-04 5.04394710e-01
      2.59205282e-01 7.50238597e-02 3.76983553e-01 2.93964148e-01
      1.33919105e-01 2.68054008e-01 0. 4.73049551e-01 4.73049551e-01
      4.73049551e-01 4.02779435e-04 2.95555051e-02 6.73534870e-02
      3.27449851e-03 5.59037412e-03 4.40254539e-01 8.34784985e-01
      3.09062123e-01 2.80233938e-03 0. 4.91114944e-01 4.91114944e-01
      1.31425828e-01 4.91114944e-01 4.91114944e-01 1.14221588e-01 0. 0.
      1.04688702e-03 5.20360796e-03 9.62721407e-02 4.44130331e-01
      4.44130331e-01 4.44130331e-01 4.44130331e-01 4.44130331e-01
      2.90655508e-03 3.35659534e-01 3.22510391e-01 3.35659534e-01
      3.22431654e-01 3.35659534e-01 3.35659534e-01 3.35659534e-01
      3.35659534e-01 3.35659534e-01 2.38607123e-01 5.73192537e-01
      5.73192537e-01 3.00930321e-01 9.46404785e-02 1.16068438e-01
      2.92644590e-01 1.15051635e-01 2.61491865e-01 3.94592375e-01
      3.94592375e-01 3.94592375e-01 1.88726798e-01 1.60996750e-01
      1.73625220e-02 3.94592375e-01 3.94592375e-01 3.94592375e-01
      4.37563518e-03 1.00265145e-02 1.72707113e-03 4.75323386e-03
      1.90793781e-03 1.41059002e-03 7.04560220e-01 7.04560220e-01
      2.37990683e-03 9.24511478e-05 6.98603928e-01 6.98603928e-01
      1.29402027e-01 1.36117768e-02 1.60426789e-04 2.26911085e-04
      1.84598539e-04 9.39782534e-04 5.51014960e-01 1.21752580e-03
      3.13287787e-02 7.06562633e-03 8.08941051e-02 8.10899492e-03
      3.43886316e-01 5.11236012e-01 5.51014960e-01 6.65948927e-01 0. 0.
      2.28450680e-03 3.26006144e-01 9.46461596e-03 8.02780560e-04
      5.83290297e-04 6.65948927e-01 4.42679733e-01 3.16391319e-01
      1.57652825e-01 7.86964782e-03 7.94053376e-02 2.83534497e-01
      4.42679733e-01 4.42679733e-01 4.42679733e-01 7.61090890e-02
      2.49858022e-01 1.85331196e-01 4.14351702e-01 4.14351702e-01
      4.14351702e-01 4.14351702e-01 4.14351702e-01 1.86694399e-01
      3.26637998e-02 3.04947817e-03 2.01710500e-02 1.43867023e-02
      5.61031327e-02 3.55953164e-02 3.50366235e-01 8.53447080e-01
      3.66402388e-01 5.57807796e-02 4.91786599e-02 1.39080629e-01
      3.04259181e-01 4.76616681e-01 9.05697569e-02 2.94508673e-02
      5.65980375e-01 5.65980375e-01 3.25323552e-01 1.28642470e-02
      1.05532864e-02 1.75740905e-02 6.43498182e-01 6.31681085e-01
      1.59388706e-02 2.13945331e-03 2.71633476e-01 4.20876533e-01
      1.53964728e-01 3.59055027e-03 2.71707952e-01 6.33567572e-01
      3.54356527e-01 1.43833920e-01 8.02664533e-02 4.06062663e-01
      4.87666458e-01 4.87666458e-01 1.61841803e-03 7.20611366e-04
      2.18526602e-01 4.87666458e-01 4.82470989e-01 2.67458148e-02
      2.05666013e-02 3.89014035e-01 3.89014035e-01 2.54748583e-01 0.
      1.52398929e-01 3.89014035e-01 3.89014035e-01 3.89014035e-01
      3.89014035e-01 5.09031676e-02 3.50397617e-01 4.86928374e-01
      1.19627602e-01 1.48726813e-02 3.84378619e-02 5.41093051e-01
      5.41093051e-01 1.74798816e-01 4.61552858e-01 3.54225576e-01
      1.22237325e-01 3.50704752e-02 2.35263798e-02 3.26262824e-02
      4.61552858e-01 4.61552858e-01 4.61552858e-01 2.07771391e-01
      3.42983124e-03 2.48432308e-02 2.45045722e-01 4.42524105e-01
      4.42524105e-01 4.42524105e-01 3.29277933e-01 4.42524105e-01
      3.96803647e-01 4.05862808e-01 4.05862808e-01 4.05862808e-01
      4.05862808e-01 4.05862808e-01 1.06794670e-01 2.10542511e-02
      5.49634025e-02 6.75274525e-03 3.68910849e-01 5.24753630e-01
      2.32493337e-02 4.09729518e-02 6.43345416e-02 5.24753630e-01
      5.24753630e-01 1.61744639e-01 4.15033191e-01 4.15033191e-01
      4.15033191e-01 0. 4.15033191e-01 4.15033191e-01 3.23769391e-01
      7.57397339e-02 1.55009657e-01</_>
    <_>
      1.25082195e-01 1.63315251e-01 3.98736715e-01 3.83005977e-01
      3.98736715e-01 1.09776050e-01 3.98736715e-01 3.98736715e-01
      3.98736715e-01 5.99074900e-01 5.99074900e-01 2.93600596e-02
      1.60910096e-02 2.89139956e-01 3.03336561e-01 1.94465578e-01
      4.27035093e-02 2.44664103e-01 4.76062208e-01 9.57770422e-02 0.
      9.24682915e-02 4.76062208e-01 4.76062208e-01 1.04384087e-01
      2.45121315e-01 4.76062208e-01 5.20677686e-01 1.94541499e-01
      6.01999089e-02 3.66657883e-01 5.20677686e-01 6.01762645e-02
      1.42733082e-02 4.18438539e-02 5.20677686e-01 4.24362630e-01
      3.79434109e-01 2.90166169e-01 4.24362630e-01 1.54705986e-01
      4.52015102e-02 1.45885468e-01 4.24362630e-01 4.24362630e-01 0.
      1.31193558e-02 1.92476019e-01 4.36449915e-01 4.36449915e-01
      4.36449915e-01 4.36449915e-01 4.36449915e-01 7.73198083e-02
      5.11501193e-01 5.11501193e-01 1.20168347e-02 1.64089501e-02
      5.75321876e-02 3.37525845e-01 3.79776120e-01 6.35204092e-02
      4.53555375e-01 5.79752684e-01 5.79752684e-01 1.97767526e-01
      2.27672304e-03 6.11201562e-02 5.12358487e-01 1.28920704e-01 0. 0.
      4.91648167e-02 8.08557719e-02 1.24983013e-01 3.50069314e-01
      2.16988176e-01 4.28494699e-02 3.45653147e-02 6.31054878e-01
      6.31054878e-01 3.25340927e-01 9.29374397e-02 4.10063177e-01
      1.83740050e-01 8.30660984e-02 4.10063177e-01 4.10063177e-01
      4.10063177e-01 4.10063177e-01 3.03187847e-01 2.01338232e-01
      1.63701713e-01 4.52490389e-01 4.52490389e-01 7.73535967e-02
      1.06057197e-01 4.52490389e-01 4.52490389e-01 1.04833068e-03
      4.26292047e-02 3.66885602e-01 5.08804262e-01 1.57348454e-01
      1.99906416e-02 2.38099784e-01 5.08804262e-01 5.08804262e-01
      1.72765136e-01 8.97152945e-02 2.80473884e-02 5.89545537e-03
      4.96387575e-03 5.56575060e-01 7.56016493e-01 2.64877111e-01
      4.70620245e-02 0. 4.86763954e-01 4.86763954e-01 2.07922563e-01
      4.86763954e-01 4.86763954e-01 6.44191578e-02 0. 0. 2.55941553e-03
      3.82140130e-02 6.47116080e-02 5.07580400e-01 2.48812035e-01
      2.28824422e-01 6.24260783e-01 4.75907177e-01 4.19665454e-03
      3.73994224e-02 4.21470463e-01 4.21470463e-01 2.18211025e-01
      2.43951187e-01 3.65700692e-01 4.21470463e-01 4.21470463e-01
      2.07307652e-01 4.05040115e-01 4.05040115e-01 4.05040115e-01
      2.19276100e-01 3.17499787e-01 1.44105718e-01 4.05040115e-01
      7.75348321e-02 4.05040115e-01 2.08750322e-01 3.07353675e-01
      6.05081797e-01 6.05081797e-01 3.17496136e-02 3.10686752e-02
      6.82519749e-02 2.51681000e-01 2.31716424e-01 5.74586727e-03
      8.43808800e-03 1.26718700e-01 3.66060078e-01 3.34541425e-02
      1.26671314e-01 6.41452074e-01 6.41452074e-01 5.78588843e-02
      8.05614144e-03 6.51901364e-01 6.51901364e-01 2.62450188e-01
      3.49847637e-02 3.92750092e-02 2.04455733e-01 1.58192128e-01
      7.07278997e-02 4.75528687e-01 1.24527030e-02 5.80045953e-02
      1.31889537e-01 2.69059896e-01 4.06678952e-02 4.71069336e-01
      4.75528687e-01 4.75528687e-01 6.93188965e-01 4.38827882e-03
      1.42530678e-03 2.74536423e-02 1.74742207e-01 1.86821129e-02
      1.20995927e-03 1.99475978e-02 6.93188965e-01 7.01816440e-01
      4.57886513e-03 4.41206153e-03 4.40945141e-02 6.81995079e-02
      2.07515396e-02 2.44798772e-02 1.53574990e-02 7.01816440e-01
      1.61813483e-01 4.33632374e-01 4.33632374e-01 2.94772565e-01
      3.99788469e-01 2.06770077e-01 3.73550147e-01 3.98592353e-01
      7.42944255e-02 2.45746374e-02 2.92815710e-03 5.32894917e-02
      4.85234737e-01 4.85234737e-01 2.09157407e-01 4.85234737e-01
      4.85234737e-01 7.83799887e-02 1.15497328e-01 1.31260589e-01
      1.90343410e-01 3.43169093e-01 9.08857137e-02 4.99313045e-03
      1.96868312e-02 6.32631958e-01 6.32631958e-01 3.72613221e-01
      9.21386406e-02 5.24232276e-02 4.90160137e-01 5.49347103e-01
      1.99110478e-01 4.94486615e-02 3.46529394e-01 3.74464750e-01
      4.84839112e-01 2.33145412e-02 1.93062816e-02 5.32434046e-01
      6.52051985e-01 4.34739105e-02 1.54720461e-02 3.01182270e-02
      2.14034215e-01 5.31496048e-01 5.31496048e-01 4.95387129e-02
      1.16762854e-01 5.31496048e-01 2.95961678e-01 1.42285705e-01
      8.45560655e-02 1.27091035e-01 4.26097631e-01 4.30645615e-01
      3.10721155e-02 1.30109666e-02 1.45248786e-01 5.09419024e-01
      5.09419024e-01 2.86448509e-01 6.78037703e-02 3.82643491e-02 0. 0.
      0. 1.47126131e-02 4.88783494e-02 6.19579673e-01 6.19579673e-01
      4.71154034e-01 0. 5.05352393e-03 1.03872426e-01 4.05917734e-01
      4.05917734e-01 4.01601553e-01 4.05917734e-01 4.05917734e-01
      4.05917734e-01 6.53185025e-02 1.64787784e-01 4.69952643e-01
      4.69952643e-01 4.69952643e-01 1.20001256e-01 7.55330399e-02
      2.45676816e-01 4.69952643e-01 4.96209443e-01 4.45124172e-02
      1.25395088e-02 4.16958481e-02 4.96209443e-01 4.96209443e-01
      7.70266503e-02 1.83986854e-02 4.96209443e-01 4.84068960e-01
      1.71214834e-01 3.59021202e-02 6.29245266e-02 4.84068960e-01
      4.84068960e-01 4.84068960e-01 8.81906673e-02 1.24634176e-01
      2.08798815e-02 1.52255669e-02 1.72133278e-02 4.45998669e-01
      4.45998669e-01 4.45998669e-01 4.45998669e-01 4.45998669e-01
      2.59739161e-03</_>
    <_>
      1.40611250e-02 6.41840622e-02 2.80248404e-01 9.45395455e-02
      6.52798936e-02 5.47199607e-01 5.47199607e-01 5.47199607e-01
      1.40611250e-02 4.93375584e-02 0. 7.85285141e-03 6.44449145e-02
      3.80763859e-01 4.68290567e-01 4.68290567e-01 4.68290567e-01
      4.31050301e-01 4.94283974e-01 8.17070622e-03 1.35003608e-02
      1.27877817e-01 4.94283974e-01 4.94283974e-01 2.10146420e-02
      2.74469052e-02 4.94283974e-01 3.55840057e-01 2.04984516e-01
      1.02853350e-01 4.51647669e-01 4.51647669e-01 1.59415323e-02
      8.50621611e-03 4.51647669e-01 4.51647669e-01 1.71872228e-02
      5.13027236e-03 0. 4.52748872e-02 2.33998355e-02 2.37055402e-02
      5.74682653e-01 5.74682653e-01 5.74682653e-01 3.09759229e-01
      3.22411433e-02 3.64806242e-02 2.57918816e-02 4.69966710e-01
      4.13722903e-01 4.69966710e-01 3.44082087e-01 4.06230152e-01
      4.99138571e-02 5.94066866e-02 4.89168018e-02 4.04131189e-02
      8.64107907e-02 6.89007878e-01 6.89007878e-01 1.61552280e-01
      6.74137240e-03 6.72161520e-01 6.72161520e-01 1.62881061e-01
      3.98012064e-03 7.37689668e-03 1.62212566e-01 7.57824257e-02
      2.85992213e-02 1.73818991e-01 4.43312153e-03 9.21517424e-03
      1.26481848e-02 1.64780114e-03 3.18560726e-03 7.23121688e-03
      5.74273132e-02 7.03331888e-01 7.03331888e-01 5.37953898e-02
      6.38230890e-02 1.78933397e-01 3.37248325e-01 4.46453750e-01
      4.40164089e-01 4.61025238e-01 4.61025238e-01 1.56589687e-01
      1.21445023e-02 2.68988544e-03 6.96506321e-01 6.96506321e-01
      5.56561835e-02 8.21527652e-03 7.27846194e-03 1.09554976e-01
      8.61961320e-02 6.33346364e-02 4.16966863e-02 1.45918792e-02
      2.44337451e-02 3.82344052e-02 3.64764482e-02 5.72982311e-01
      5.72982311e-01 5.72982311e-01 1.30988937e-03 0. 8.97811428e-02
      1.21072695e-01 2.80412942e-01 5.92701137e-01 5.92701137e-01
      4.36048806e-01 1.30988937e-03 5.54977264e-03 4.93832678e-01
      5.00203788e-01 5.00203788e-01 5.00203788e-01 2.21606418e-02 0. 0.
      0. 0. 0. 0. 2.94039422e-03 5.65654933e-01 5.65654933e-01
      5.65654933e-01 1.85596794e-01 0. 3.46239805e-02 7.75718018e-02
      2.32715413e-01 6.68863058e-02 5.25426507e-01 2.55407751e-01
      5.38395464e-01 5.38395464e-01 8.79274160e-02 6.24674782e-02
      6.88098431e-01 6.88098431e-01 1.66815341e-01 5.28445467e-02
      4.80957702e-02 4.75988127e-02 6.72535151e-02 5.04784212e-02
      4.06344891e-01 4.06344891e-01 4.06344891e-01 1.35273756e-02
      7.04182386e-02 1.00904899e-02 4.06344891e-01 4.06344891e-01
      4.06344891e-01 2.26333831e-03 0. 0. 0. 5.41976653e-04
      2.90290918e-03 7.04297304e-01 7.04297304e-01 2.97682546e-02
      6.39029173e-03 6.77958369e-01 7.00063407e-01 2.07887501e-01
      6.11110358e-03 0. 0. 0. 0. 4.98490304e-01 0. 3.48323514e-03
      1.22056529e-02 2.45762337e-02 1.69082526e-02 4.98490304e-01
      4.98490304e-01 4.98490304e-01 6.97773397e-01 0. 0. 3.11761978e-03
      1.38484448e-01 8.42769165e-03 0. 4.97523404e-04 6.97773397e-01
      6.52898312e-01 6.95577785e-02 1.98576394e-02 8.46012961e-03
      8.58018920e-02 8.82802606e-02 7.37109408e-02 3.39170277e-01
      6.52898312e-01 8.85493979e-02 1.20091751e-01 2.65105069e-01
      1.86715201e-01 3.30491543e-01 5.88834703e-01 5.88834703e-01
      2.49065131e-01 4.47579995e-02 2.44009122e-01 1.01838626e-01
      3.14875655e-02 6.54901145e-03 2.48067789e-02 0. 1.78853109e-01
      6.67005002e-01 6.67005002e-01 1.60873741e-01 6.40774146e-02
      1.20612197e-01 3.67632866e-01 4.88741726e-01 3.09972644e-01
      5.23694940e-02 4.88741726e-01 4.88741726e-01 1.86906397e-01
      4.17448282e-02 4.41680104e-03 1.25071868e-01 9.22245324e-01
      2.20568717e-01 8.40661000e-04 1.39549533e-02 1.97679594e-01
      2.00858980e-01 1.38872311e-01 8.51422176e-02 4.19991314e-01
      7.54085124e-01 9.21639204e-02 1.72129702e-02 7.52808079e-02
      4.07553256e-01 4.60232407e-01 4.60232407e-01 1.88032538e-01
      3.26170564e-01 4.60232407e-01 4.60232407e-01 6.60835728e-02
      1.37414075e-02 4.29892242e-02 2.90938336e-02 2.46613607e-01
      7.34720826e-02 1.19819101e-02 2.34378666e-01 6.30825698e-01
      6.30825698e-01 2.66945988e-01 6.64808005e-02 5.51118553e-01
      5.12054503e-01 3.13428976e-02 0. 0. 0. 1.76958680e-01
      3.04198295e-01 5.51118553e-01 3.05106062e-02 0. 0. 0. 0. 0.
      5.75419605e-01 5.75419605e-01 5.75419605e-01 6.85725629e-01
      1.50765091e-01 4.10083830e-02 8.20545480e-04 5.07904636e-03
      1.76252006e-03 4.47070450e-02 1.62095964e-01 6.85725629e-01
      4.11057681e-01 2.31429189e-01 8.52893367e-02 4.11057681e-01
      4.11057681e-01 4.11057681e-01 4.11057681e-01 2.12757394e-01
      2.12019607e-01 3.99441347e-02 7.66468840e-03 1.63891278e-02
      9.21905786e-03 4.45766658e-01 4.45766658e-01 4.45766658e-01
      4.45766658e-01 4.45766658e-01 3.39591652e-02 6.47817105e-02
      4.38840479e-01 4.38840479e-01 4.38840479e-01 4.38840479e-01
      4.38840479e-01 1.61889613e-01 3.39591652e-02</_>
    <_>
      1.60535529e-01 4.82170992e-02 9.48711019e-03 2.38526892e-03
      2.66186386e-01 4.60555673e-01 4.95431900e-01 4.95431900e-01
      4.39303279e-01 5.54000020e-01 5.54000020e-01 8.46463069e-02 0.
      1.09833151e-01 5.54000020e-01 2.27365822e-01 3.04296962e-03
      5.27901612e-02 1.86609551e-02 2.31123939e-02 6.65342435e-02
      2.34857410e-01 5.62689006e-01 5.62689006e-01 8.38650391e-02
      3.83999825e-01 3.82343680e-01 5.60324863e-02 1.43470289e-03
      5.41267574e-01 5.41267574e-01 5.41267574e-01 2.84529001e-01
      1.36517912e-01 1.06684580e-01 3.95701416e-02 3.38687040e-02
      4.90595028e-03 4.38464284e-01 5.09921491e-01 1.28270268e-01
      4.19780500e-02 5.66576011e-02 5.09921491e-01 5.09921491e-01
      2.76312947e-01 3.96737307e-01 1.89240143e-01 1.88402921e-01 0.
      1.81495801e-01 4.68090832e-01 4.68090832e-01 4.68090832e-01
      1.29024871e-03 1.45428672e-01 2.65916407e-01 3.72373424e-02
      8.51110835e-03 6.39335513e-01 6.39335513e-01 2.86949217e-01
      2.13452578e-02 6.71122074e-01 6.71122074e-01 1.88259169e-01
      4.32013385e-02 1.93240210e-01 1.32059991e-01 1.58642437e-02
      1.08515332e-02 5.60665037e-03 2.88381297e-02 4.29396844e-03
      1.12443380e-02 5.49389224e-04 1.35848522e-01 3.98202129e-02
      1.90978289e-01 6.83988988e-01 6.83988988e-01 5.30686677e-02
      9.28924531e-02 3.21586616e-02 3.11114956e-02 4.21876498e-02
      1.10441305e-01 6.90374076e-01 6.90374076e-01 1.11584000e-01
      1.26879454e-01 2.74551034e-01 4.82637137e-01 4.82637137e-01
      4.15942669e-01 1.20051734e-01 4.82637137e-01 4.15873528e-02
      1.25446156e-01 3.42135951e-02 1.94660313e-02 3.25045288e-01
      4.67539877e-01 1.17269151e-01 0. 4.67539877e-01 4.67539877e-01
      4.67539877e-01 1.08421082e-02 1.22467220e-01 3.80122155e-01
      6.11188496e-03 1.54615259e-02 6.10353529e-01 6.10353529e-01
      2.93512523e-01 5.29922023e-02 1.74299313e-03 5.38205326e-01
      5.38205326e-01 1.42348975e-01 2.96407759e-01 5.38205326e-01
      1.32309332e-01 0. 8.31221463e-04 0. 1.77129917e-02 2.18965068e-01
      4.75528300e-01 4.75528300e-01 2.06112072e-01 4.75528300e-01
      4.75528300e-01 0. 5.09525836e-01 6.91948533e-02 2.00757310e-01
      5.82034104e-02 1.65822580e-02 1.72397316e-01 5.09525836e-01
      5.09525836e-01 3.70926648e-01 4.73534673e-01 5.27962521e-02
      1.77076429e-01 1.31099671e-01 2.16792971e-01 0. 4.73534673e-01
      4.73534673e-01 4.73534673e-01 5.95297217e-02 4.80974674e-01
      4.80974674e-01 4.80974674e-01 4.81950156e-02 2.29728431e-03
      2.18687475e-01 4.80974674e-01 1.27096012e-01 4.14175317e-02
      1.04572579e-01 2.74914168e-02 9.20919050e-03 1.31117618e-02 0.
      6.68288529e-01 6.68288529e-01 2.94016659e-01 1.31157716e-03
      7.04607308e-01 7.04607308e-01 2.03554495e-03 3.54725029e-03
      1.95176888e-03 1.01474009e-03 3.38246668e-04 1.29350272e-04
      4.98684883e-01 6.63304375e-03 1.42476745e-02 8.19753623e-04
      4.08884650e-03 2.91627808e-03 4.98684883e-01 4.98684883e-01
      4.98684883e-01 7.03907490e-01 3.82913742e-04 3.08774579e-05
      2.14850157e-03 3.97496559e-02 2.04138793e-02 0. 5.37344837e-04
      7.03907490e-01 6.86992943e-01 6.76290190e-04 0. 2.17140047e-03
      6.77853078e-03 0. 8.23959559e-02 2.05871642e-01 6.86992943e-01
      4.30982620e-01 4.45237786e-01 4.45237786e-01 7.47989938e-02
      8.96111205e-02 4.45237786e-01 4.45237786e-01 5.65641709e-02
      5.94732910e-03 2.12389301e-03 5.03358804e-03 9.68468282e-03 0.
      9.89347231e-04 5.97796356e-03 4.41311449e-01 7.08042920e-01
      5.44693828e-01 2.96085346e-02 1.16394669e-01 5.66091180e-01
      5.66091180e-01 5.66091180e-01 5.03517874e-02 4.36639115e-02
      6.92344308e-02 9.64885652e-02 7.88963027e-03 0. 1.60080472e-05
      6.33388162e-02 7.03121901e-01 7.03121901e-01 6.48146146e-04 0.
      1.20807551e-02 4.29904424e-02 0. 0. 9.69807953e-02 9.82668340e-01
      9.15207341e-02 1.72407110e-03 3.79572459e-03 7.00962916e-02
      1.89765632e-01 3.30280513e-01 8.29877034e-02 1.63936123e-01
      8.13991487e-01 3.66093129e-01 1.07252434e-01 7.00555071e-02
      1.18490797e-03 2.96934843e-01 4.51544017e-01 7.27426708e-02
      1.81893464e-02 1.06429018e-01 5.73850811e-01 5.73850811e-01
      1.60658792e-01 2.89380420e-02 2.73078661e-02 3.75813842e-02
      1.33411260e-02 8.42362940e-02 1.82426777e-02 2.98189986e-02
      7.00166941e-01 7.00166941e-01 4.34683263e-02 3.69447432e-02
      7.22347647e-02 2.19264776e-01 7.48021230e-02 4.14615348e-02
      3.24507087e-01 5.25190771e-01 5.25190771e-01 5.25190771e-01
      5.52807271e-01 7.58184567e-02 1.46991059e-01 1.14070745e-02
      7.98492506e-03 4.59157350e-03 2.23879948e-01 5.52807271e-01
      5.52807271e-01 4.88948584e-01 4.88948584e-01 1.27417937e-01
      1.38944164e-02 8.38239584e-03 2.04545587e-01 4.40438062e-01
      1.59940407e-01 4.88948584e-01 3.74370039e-01 4.91121501e-01
      9.75470431e-03 6.06506839e-02 4.91121501e-01 4.91121501e-01
      3.54082495e-01 3.40957455e-02 3.20978314e-02 3.83333206e-01
      4.25786108e-01 4.03882354e-01 4.06724542e-01 4.25786108e-01
      2.61007696e-01 1.33530661e-01 4.33441997e-02 2.64262378e-01</_>
    <_>
      4.36975062e-01 4.36975062e-01 1.81145310e-01 8.84511843e-02
      4.36975062e-01 4.36975062e-01 4.36975062e-01 1.15400888e-02
      1.13456035e-02 5.24734974e-01 5.24734974e-01 1.98364288e-01
      4.89287823e-02 2.08844140e-01 5.24734974e-01 2.87865251e-01
      2.22389735e-02 0. 3.06543887e-01 5.48399985e-02 3.85432877e-02
      1.78327337e-01 5.00820577e-01 2.82116026e-01 1.80781662e-01
      5.00820577e-01 5.00820577e-01 1.16515607e-01 7.76150674e-02
      1.93494022e-01 5.44240296e-01 5.44240296e-01 1.65561870e-01
      9.06528458e-02 1.15342990e-01 5.44240296e-01 2.07958996e-01
      8.27766135e-02 3.19242418e-01 4.91620064e-01 3.03787082e-01
      1.57642975e-01 2.94334963e-02 4.91620064e-01 4.91620064e-01
      1.41167790e-01 1.09284176e-02 2.31188029e-01 4.10790503e-01
      4.10790503e-01 2.80457795e-01 4.10790503e-01 4.10790503e-01
      4.10790503e-01 3.17880005e-01 4.63432282e-01 4.63432282e-01
      6.38492480e-02 1.04039818e-01 4.63432282e-01 4.63432282e-01
      6.06534407e-02 1.29095137e-01 2.72948772e-01 4.62641090e-01
      4.62641090e-01 2.27531165e-01 4.62641090e-01 4.62641090e-01
      4.79527079e-02 1.03084087e-01 5.87317487e-03 9.62535292e-02
      6.23082221e-02 1.19072586e-01 3.11473936e-01 4.84719336e-01
      3.17150116e-01 2.55684555e-01 4.84719336e-01 4.84719336e-01
      3.35783333e-01 1.17498718e-01 4.40217823e-01 9.80796367e-02
      9.73363444e-02 4.40217823e-01 4.40217823e-01 4.40217823e-01
      2.73468792e-01 1.74577460e-01 3.24001998e-01 5.61557412e-01
      5.61557412e-01 2.67529815e-01 1.61390468e-01 4.96054925e-02
      1.27775297e-01 3.34422141e-01 1.07759954e-02 4.18533850e-03
      5.81966229e-02 3.11176747e-01 4.41290587e-01 2.81460941e-01
      4.55025971e-01 4.55025971e-01 4.55025971e-01 4.88501973e-02
      4.60148007e-01 4.68089014e-01 7.35695735e-02 4.10858765e-02
      1.63437352e-01 5.13379514e-01 5.13379514e-01 2.67154332e-02
      2.49269395e-03 6.43347740e-01 6.43347740e-01 5.74174672e-02
      1.72457278e-01 3.54206413e-01 8.49791840e-02 7.49303075e-03 0.
      4.02828073e-03 4.40844446e-02 1.83011517e-01 4.19627577e-01
      2.38434225e-01 8.97460878e-02 6.08305097e-01 5.89445293e-01
      3.18406150e-04 3.63757342e-01 3.63757342e-01 1.83858931e-01
      3.63757342e-01 3.63757342e-01 1.90593302e-01 3.63757342e-01
      3.63757342e-01 3.63757342e-01 3.75592083e-01 3.75592083e-01
      3.75592083e-01 3.75592083e-01 3.75592083e-01 2.34910119e-02
      9.06086117e-02 3.75592083e-01 3.75592083e-01 3.63706350e-02
      1.22911118e-01 4.84066337e-01 4.84066337e-01 1.08115032e-01
      2.68980116e-03 4.84066337e-01 4.84066337e-01 1.72506109e-01
      1.39304902e-02 2.13778447e-02 4.49508250e-01 4.49508250e-01
      1.84487477e-02 1.41218062e-02 4.49508250e-01 4.49508250e-01
      4.31379646e-01 1.17222418e-03 6.22196615e-01 6.22196615e-01
      4.51473892e-01 1.07832542e-02 3.91367301e-02 1.11762308e-01
      3.94259319e-02 2.72396696e-03 5.30627251e-01 3.26269269e-02
      2.14720820e-03 2.32450869e-02 1.50739893e-01 3.51089276e-02
      3.52761000e-01 5.30627251e-01 5.30627251e-01 7.04088151e-01
      2.72480864e-03 1.59905729e-04 6.10434776e-03 3.70286219e-02
      5.75770857e-04 1.51192071e-03 8.53962731e-03 7.04088151e-01
      6.85267806e-01 4.18453179e-02 1.34474589e-02 3.26259956e-02
      1.04176588e-01 2.92812157e-02 2.29397546e-02 1.96831003e-01
      6.85267806e-01 3.00776839e-01 4.76357698e-01 4.76357698e-01
      3.63893777e-01 4.76357698e-01 2.06997946e-01 4.99419607e-02
      8.29669312e-02 1.98446140e-01 9.96819660e-02 3.40296954e-01
      6.08328342e-01 6.08328342e-01 5.00620231e-02 1.13540906e-02
      4.60730662e-04 2.95060158e-01 1.95869878e-01 1.11046761e-01
      1.62301078e-01 4.85695899e-01 4.69633847e-01 7.10080937e-02
      6.85822498e-03 2.03179177e-02 4.97193485e-01 4.97193485e-01
      2.71775335e-01 5.77295609e-02 1.92601383e-01 5.90293109e-01
      5.90293109e-01 3.57331723e-01 6.15358278e-02 1.27355829e-01
      1.87701941e-01 3.55867408e-02 0. 0. 6.87325060e-01 6.87325060e-01
      1.64433718e-02 4.32043150e-03 3.30961682e-02 2.13673323e-01
      2.71700621e-01 1.58114418e-01 3.98108959e-02 5.58606684e-01
      5.58606684e-01 4.06979650e-01 3.21691900e-01 1.83495041e-02
      2.18608007e-02 2.40754411e-01 1.32094413e-01 8.02862365e-03
      3.56704704e-02 2.20248654e-01 5.26086032e-01 5.26086032e-01
      5.26086032e-01 1.97961494e-01 5.24811864e-01 3.84316668e-02
      1.85763642e-01 4.81495559e-02 2.57753972e-02 1.25075564e-01
      5.24811864e-01 3.37438285e-01 5.24811864e-01 1.81397036e-01
      2.56887853e-01 4.56239551e-01 4.56239551e-01 4.56239551e-01
      1.47257060e-01 3.64913970e-01 1.80241048e-01 2.91117400e-01
      3.32182527e-01 6.79378957e-02 1.01512998e-01 4.89878893e-01
      4.89878893e-01 5.90266054e-03 2.09311042e-02 3.86554778e-01
      4.89878893e-01 4.92168903e-01 7.72397295e-02 8.61049071e-03
      3.03512868e-02 4.92168903e-01 4.92168903e-01 1.24367647e-01
      6.11134060e-02 4.92168903e-01 2.72810847e-01 5.11466146e-01
      2.93206781e-01 3.70789766e-01 2.87207365e-01 5.11466146e-01
      2.70760000e-01 1.21031351e-01 5.80344312e-02 1.63037956e-01
      3.31806988e-02 2.94658810e-01 3.91979575e-01 3.91979575e-01
      3.36657286e-01 3.91979575e-01 3.91979575e-01 3.91979575e-01</_>
    <_>
      1.52754277e-01 4.85621423e-01 4.85621423e-01 1.42171785e-01
      1.51231401e-02 1.99035536e-02 4.85621423e-01 4.85621423e-01
      8.75533521e-02 4.79477555e-01 4.79477555e-01 1.99720338e-02 0.
      2.01723754e-01 4.79477555e-01 3.03226143e-01 2.10590400e-02
      4.14769679e-01 1.64562955e-01 1.63936511e-01 3.65972340e-01
      3.52905579e-02 5.72346032e-01 5.72346032e-01 2.54670233e-01
      2.07103521e-01 2.05520898e-01 4.20607701e-02 6.00224268e-03
      4.77787644e-01 4.77787644e-01 4.77787644e-01 3.97260711e-02
      4.22573179e-01 2.49058709e-01 2.57687926e-01 1.94610715e-01
      6.85989996e-03 4.24637526e-01 4.24637526e-01 2.36887395e-01
      1.17072174e-02 4.24637526e-01 4.24637526e-01 4.24637526e-01
      2.77171433e-02 0. 3.97919677e-02 2.79152691e-01 4.27889675e-01
      4.27889675e-01 4.27889675e-01 4.27889675e-01 4.27889675e-01
      3.61520261e-01 3.61520261e-01 2.85497129e-01 1.08135620e-03
      3.61520261e-01 3.61520261e-01 3.61520261e-01 3.61520261e-01
      3.61520261e-01 5.91293693e-01 5.91293693e-01 4.72998708e-01
      9.02808458e-03 2.48172209e-01 7.53220096e-02 9.91033018e-03
      4.26645507e-04 6.05710633e-02 1.93253122e-02 2.18179431e-02
      1.73491414e-03 8.03869683e-03 2.38314196e-01 5.22981845e-02
      1.39929712e-01 6.75732136e-01 6.75732136e-01 9.54774991e-02
      7.60611072e-02 2.28183299e-01 0. 6.72929808e-02 0. 6.74409807e-01
      6.74409807e-01 1.10058405e-01 6.38979748e-02 2.27360055e-02
      4.28701282e-01 5.79996169e-01 3.44824970e-01 2.26108491e-01
      1.63919777e-01 3.36146772e-01 3.99417788e-01 1.11499950e-01
      5.13777174e-02 2.20554739e-01 4.92606699e-01 5.65814972e-02 0.
      4.47412819e-01 4.92606699e-01 4.92606699e-01 1.49537116e-01
      7.32873334e-03 4.27497625e-02 6.51197182e-03 3.58355567e-02
      6.38701379e-01 6.38701379e-01 3.62278879e-01 1.44669399e-01 0.
      5.60555875e-01 5.60555875e-01 1.41074985e-01 3.35524559e-01
      4.81322587e-01 4.24991176e-02 0. 0. 2.10500928e-03 0.
      2.55896151e-02 5.35669208e-01 3.62857133e-01 2.77519412e-02
      5.35669208e-01 5.35669208e-01 2.70438585e-02 5.44346273e-02
      1.87839523e-01 2.38272563e-01 3.04477173e-03 1.42701074e-01
      2.96438355e-02 6.21689677e-01 6.21689677e-01 3.23302209e-01
      2.23972529e-01 6.74472153e-02 7.77131990e-02 0. 3.50050330e-01 0.
      5.99647701e-01 5.99647701e-01 3.02606106e-01 3.33183140e-01
      4.54295605e-01 4.54295605e-01 4.54295605e-01 6.43661544e-02 0.
      1.46881938e-01 4.54295605e-01 1.82197735e-01 7.25145405e-03 0. 0.
      0. 0. 2.30737925e-01 5.60093582e-01 5.60093582e-01 5.60093582e-01
      3.20886401e-03 6.42518401e-01 6.42518401e-01 4.09616023e-01
      2.07130169e-03 1.59853755e-03 9.57288872e-03 5.43698808e-03
      1.36691157e-03 5.15605092e-01 2.92173761e-04 9.21552535e-04
      9.17324389e-04 4.66759503e-02 7.49430037e-04 4.41728413e-01
      5.15605092e-01 5.15605092e-01 7.01529145e-01 3.49144684e-03
      6.74179091e-06 4.72957108e-05 9.30097327e-02 2.49191397e-03
      2.54410156e-03 5.92588959e-03 7.01529145e-01 6.59265757e-01
      8.90123949e-04 1.03979360e-03 6.65884640e-04 1.02606863e-01
      4.69152965e-02 1.95765838e-01 2.70369858e-01 6.59265757e-01
      1.83084443e-01 4.89326924e-01 4.89326924e-01 0. 3.41211371e-02
      4.89326924e-01 4.89326924e-01 5.16258292e-02 0. 3.05987746e-02
      2.32591987e-01 4.57946360e-01 0. 1.46472855e-02 1.38697043e-01
      4.86804634e-01 4.86804634e-01 4.86804634e-01 6.56006066e-03
      1.78631637e-02 1.25600517e-01 2.54686058e-01 2.03071564e-01
      1.41236112e-01 1.57396987e-01 6.42891586e-01 6.42891586e-01 0. 0.
      0. 5.97468466e-02 9.70069051e-01 2.12534294e-01 2.21061595e-02
      7.67596718e-03 8.12604558e-04 1.90983701e-03 4.27236641e-03
      1.65826939e-02 6.60570189e-02 9.87654388e-01 9.86720398e-02
      1.60528515e-02 5.35095064e-03 1.90983701e-03 5.64167500e-01
      5.64167500e-01 1.44205214e-02 3.40820216e-02 5.64167500e-01
      1.93075538e-01 1.61537621e-02 2.45270953e-02 1.09082542e-03
      6.74469173e-02 2.65162051e-01 2.55498360e-03 3.92505620e-03
      7.34050795e-02 6.75639868e-01 6.75639868e-01 2.49255192e-03 0.
      1.11907686e-03 3.49120915e-01 4.88888443e-01 0. 0. 0.
      5.62796652e-01 5.62796652e-01 1.11907686e-03 3.37264717e-01
      2.72470593e-01 3.50677609e-01 3.50677609e-01 3.50677609e-01
      2.65819401e-01 3.50677609e-01 3.50677609e-01 3.50677609e-01
      3.26864749e-01 8.27792566e-04 2.13160049e-02 4.71087694e-01
      4.71087694e-01 2.31670658e-03 1.72952544e-02 4.71087694e-01
      4.71087694e-01 5.50951719e-01 1.46622285e-01 1.68024082e-04
      8.47242845e-05 5.50951719e-01 5.50951719e-01 1.11785196e-02
      3.96237848e-03 2.49430954e-01 9.27248225e-02 1.24303289e-01
      1.67226661e-02 4.25937660e-02 6.93876922e-01 6.93876922e-01
      6.08198829e-02 1.59465615e-02 6.80752331e-03 2.94876575e-01
      6.57040402e-02 2.00309962e-01 3.11766982e-01 4.13302004e-01
      2.89836287e-01 4.13302004e-01 4.13302004e-01 4.13302004e-01</_>
    <_>
      2.87247747e-01 3.63499761e-01 4.18320030e-01 0. 2.08741650e-01
      1.94005668e-01 4.18320030e-01 4.18320030e-01 4.18320030e-01
      4.37933117e-01 8.53512064e-02 0. 0. 1.64480433e-01 5.60715616e-01
      3.92248690e-01 4.21249986e-01 3.50091338e-01 3.06820005e-01
      1.72671184e-01 5.56718558e-02 2.16504913e-02 5.40389240e-01
      5.40389240e-01 1.58991367e-02 2.40751147e-01 4.74158764e-01 0. 0.
      2.53936611e-02 6.63598955e-01 6.63598955e-01 1.02694444e-01
      1.24797486e-01 2.53641754e-01 1.46794349e-01 2.43826527e-02
      6.50194567e-03 6.92075193e-02 5.72430313e-01 7.62602463e-02
      2.34864932e-03 2.62445235e-03 5.72430313e-01 5.72430313e-01
      3.62379432e-01 6.93809465e-02 0. 1.00463390e-01 3.44334304e-01
      1.64300054e-01 4.84209925e-01 4.84209925e-01 4.84209925e-01
      1.25813624e-03 3.34362984e-02 8.45208094e-02 6.49919873e-03
      2.44234297e-02 6.97678566e-01 6.97678566e-01 1.03014648e-01
      3.24140373e-03 6.81233168e-01 6.81233168e-01 2.04384938e-01
      3.09531484e-02 1.04462288e-01 1.01120189e-01 3.41048278e-02
      2.74304627e-03 1.59746455e-03 6.62226137e-03 1.65824103e-03
      2.77289335e-04 6.50427677e-03 3.48604284e-02 2.86406986e-02
